1881 100
) -0.50870216 0.61016876 -0.088755794 0.30298197 -0.4182131 -0.4083192 0.002102743 0.7765731 -0.31321874 -0.5624479 0.11964717 0.043207593 0.1990425 0.5243712 0.41268513 0.41376975 0.39655483 0.42348176 -0.26835218 -0.4097329 0.09492119 0.04085209 0.61617184 0.28281137 0.42114285 0.38733765 -0.55707586 0.18774846 -0.032060277 0.30947995 0.21750961 -0.1343113 -0.25764298 -0.5040996 -0.4428145 0.37813446 0.1830519 -0.23403482 0.012834845 -0.15973233 -0.50413185 0.1316708 -0.064438485 0.10066159 -0.06964998 -0.42180413 0.038620453 -0.071151175 -0.44649246 0.21080308 0.64374566 -0.14930236 -0.6922552 -0.44374973 0.0470972 -0.04161196 -0.21620196 0.054281376 0.14869435 0.020918129 -0.21726748 -0.04183035 0.3766626 -0.055041257 0.04403402 0.7647444 0.12616959 0.38658386 -0.19642836 0.5448277 0.2017949 0.5421646 -0.07157918 -0.25451854 0.121392325 0.022554398 -0.164891 0.6780452 -0.05046884 0.22561885 -0.48302862 0.37002856 0.3153917 0.1574676 -0.02339559 -0.4925052 0.69103175 -0.18710603 -0.027153727 -0.023458501 0.32823223 -0.056226637 0.025849696 -0.37031433 0.68482226 -0.22616953 0.30665302 -0.55490494 0.11447818 0.36598083
( -0.4651515 0.4420415 0.042522877 0.21721569 -0.35729423 -0.44964945 -0.12348934 0.38487366 -0.59627795 -0.5530574 0.09998138 0.070899785 0.2335171 0.5256014 0.47454283 0.51128644 0.42707014 0.41667244 -0.31425315 -0.44341195 0.12095704 -0.19206491 0.52258986 0.117435925 0.29332626 0.4194127 -0.477491 0.29509887 -0.0073676785 0.5225932 0.46099725 -0.16575976 -0.29027978 -0.38627 -0.22846979 0.5282244 0.028641818 -0.22678712 -0.15761735 0.09681633 -0.30434787 -0.16014618 -0.30385986 0.44483885 -0.1541441 -0.53917634 0.19423501 -0.3508174 -0.43464524 -0.073295765 0.8898499 -0.37388352 -0.71786946 -0.5198011 -0.014391574 0.41791597 -0.35855013 0.05335477 0.026167491 0.0031746014 -0.21878125 -0.16542868 0.17638843 -0.13043484 -0.04405118 0.8826128 0.19804694 -0.030727828 -0.021523299 0.51736933 0.021503123 0.17322773 -0.117643334 0.012447158 -0.08585757 0.2932542 -0.27641276 0.49978265 -0.09381872 0.22181354 -0.36528575 0.48157462 0.22218382 0.09457225 0.056460697 -0.17607963 0.33252245 -0.07108791 0.2581373 -0.101432435 0.30441505 -0.18044956 -0.07716242 -0.2773029 0.28915873 -0.3456857 0.4639608 -0.6211113 0.024288598 0.020723257
; -0.27143818 0.63589674 -0.20056318 0.050719153 -0.00029212623 -0.0065272516 -0.19772133 0.61289114 -0.7330325 -0.24528241 -0.021131262 -0.38187736 0.36026612 0.3467443 0.5039091 0.4319668 0.4371729 0.5394247 0.0036645813 -0.69427896 0.24681418 0.089431636 0.20826891 -0.19568129 0.24495551 0.21971448 -0.37487087 0.5088826 0.11417933 0.1332824 0.30944335 -0.27604094 -0.44923344 -0.45455995 -0.5301016 0.2735273 0.4981276 0.060542535 -0.47441965 0.1620942 -0.11518303 0.15538023 0.058762252 0.5278014 -0.22330052 -0.3580012 -0.26431912 -0.28035834 -0.2923554 -0.07603899 0.942277 -0.19004227 -0.7092808 -0.48147193 -0.6103559 0.1253199 0.00052683946 -0.09196141 0.30058348 0.30952018 -0.37474793 -0.026145946 0.37439945 0.26592547 0.116749026 0.6601542 0.28142238 0.27100623 -0.053693134 0.36824355 -0.13043417 -0.02938759 0.31774455 -0.17836292 -0.07337353 0.40184572 0.53774047 0.8795252 -0.104511395 0.16333686 -0.63697386 0.14739916 0.3272121 -0.061803967 -0.09998392 -0.5961402 0.15338205 -0.20232293 0.27564374 0.02264061 0.41732338 0.29111025 0.14206843 0.053183187 0.90856063 -0.19339745 0.6896005 -0.05935413 -0.045295767 0.28932625
= -0.40862247 1.2255366 0.08950869 0.098780185 0.18766712 -0.31456888 0.19422674 1.0358887 -0.5218982 -0.5161626 0.19371293 -0.5031544 -0.39402914 0.039398942 0.46903005 0.5437306 0.40856248 0.22369938 -0.012824166 -0.4340572 0.029201552 0.010370723 0.9439052 0.08151088 -0.29137442 0.20424373 -0.3165167 -0.16659394 0.33281147 -0.25256985 0.09108416 -0.29752296 -0.41058555 -0.31205064 -0.50548595 0.74420965 0.9027425 -0.053145565 -0.43280834 -0.12185338 0.20807818 0.024175266 0.39994127 0.23088165 -0.1320559 -0.1982524 -0.21725729 -0.6306233 -0.1375829 0.14655228 0.9450118 -0.38295245 -0.6730969 -0.3259029 -1.0999383 0.04403974 0.5872253 0.51514626 0.18770315 0.45542943 -0.5176652 -0.015692893 0.58370256 0.31109792 0.84036696 0.7002611 0.19359694 0.5434619 -0.27099085 0.33926824 -0.60873526 -0.06341268 0.35529748 0.09730929 0.18990219 0.058085885 -0.35921893 1.1978208 -0.00016181143 0.071245655 -0.3698545 0.65431243 0.3234473 -0.33562106 -0.37442258 -0.60252166 1.2034343 -0.26806238 -0.11809092 -0.19541045 0.567597 0.22238281 -0.4761671 -0.20304376 0.997798 -0.2739007 0.7067153 -0.44705683 -0.33909452 0.2123178
, -0.42929783 0.3325276 -0.269628 0.51163536 -0.053438403 0.16083547 -0.11776221 0.36801028 0.21440732 -0.0173079 -0.17624038 0.27948424 -0.27834645 0.5167882 -0.1411326 -0.07471789 0.0030426448 -0.4061128 -0.11839485 -0.7533049 0.52081674 0.021359691 -0.1563253 0.76235527 0.34472328 0.44804072 -0.5749627 1.0210735 -0.84977967 0.9620438 0.2387984 -0.23718417 0.21919829 -0.8459104 -0.42126098 0.48529577 -0.32529455 -0.3881337 -0.9450653 0.4280696 -0.4762504 -0.27732828 -0.44267374 0.38460284 0.3304279 -0.8089436 -0.21435122 -0.15760405 0.55198 0.2008351 0.21862096 -0.09162227 0.17656294 -0.46628857 0.34956592 0.4641857 -0.47506663 -0.21812291 -0.40510228 -0.107677504 0.20607604 -0.9157143 -0.48402324 -0.6621878 -1.0963174 0.41517332 -0.050107576 0.657326 -0.1441335 0.4675392 0.1935933 0.99788815 0.20007454 -0.62069416 -0.065079644 0.33466116 0.37447459 0.9432294 0.5950672 -0.85568064 -1.0150273 -0.058727235 -0.037623797 0.3304477 -0.13526376 -0.1462199 -0.27031273 0.46623328 0.35092598 -0.47730744 0.5729234 0.11756326 -0.080798134 -0.43236023 -0.4504963 -0.24392973 0.08731258 -0.16673724 0.043182362 0.37832385
- -0.41886345 1.0507634 0.17743428 -0.2134445 -0.2200216 -0.70896775 0.34533286 0.6877935 -0.77471584 -0.30424047 -0.098508 -0.2917371 -0.7768794 -0.013704557 -0.08018 -0.04042301 0.40978062 -0.11594859 -0.64165133 -0.7302187 -0.10180051 -0.26865193 1.1702076 0.02547528 -0.93313 0.08010199 0.2825889 -0.056667205 -0.24855004 -0.028018013 0.75358564 -0.64502144 0.22880812 -0.71379286 -0.14535964 0.50024563 0.4889029 -0.3080595 -0.38385838 -0.16512835 0.9335072 -0.2447856 -0.05505842 -0.38884628 0.08948382 -0.05401957 -1.1140772 -0.24363637 0.71934956 -0.2679095 0.6795036 -0.77795136 0.0651614 -0.3605792 -1.4474218 0.16653365 0.5785345 0.47175533 -0.5629575 -0.020397153 -0.33758348 -0.29838628 0.27789757 0.58295506 0.20691034 1.6970203 -0.20369846 0.9738193 -1.0017713 0.5895131 -0.59796786 0.49025223 0.7891693 0.23597729 0.20721696 0.49235603 -0.27475947 0.90401167 -0.2703382 -0.43194446 -0.5799021 0.55619663 0.25334147 -0.33487013 -0.98587537 -1.0772955 0.897546 0.046626005 0.7496819 -0.107219435 1.1570513 0.17386808 -0.9481447 -0.28304553 0.74674875 -0.057237465 0.240497 -1.4118373 0.011162073 0.3140235
> -0.16206844 1.2018822 0.23505197 -0.21249515 0.011005924 -0.70542365 0.3357817 0.64686215 -0.8197927 -0.32839158 0.1296055 -0.42516273 -0.66855395 0.12355127 0.14907081 0.14980909 0.86375755 0.10801967 -0.6000218 -1.1097884 -0.116631396 -0.38050923 1.6307837 -0.045710582 -0.91955274 0.28566703 0.07541509 -0.097312875 -0.22267245 -0.3180147 1.0580485 -0.5094102 0.34642455 -0.7535158 -0.49962875 0.6597946 0.4753566 -0.48839676 -0.75985473 -0.53064495 0.796637 -0.17664386 0.1900937 -0.4448225 -0.12844968 0.032212462 -1.1649295 -0.66020834 0.45021397 -0.22205774 0.6915442 -1.0207264 -0.2925458 -0.41383162 -1.6818535 -0.11439047 0.6651649 0.57191235 -0.7259288 -0.10219678 -0.3667769 -0.36186162 0.69997036 0.81739295 0.40339667 1.8725064 -0.28484765 0.843999 -1.307924 0.579991 -0.8670871 0.6972757 0.5757423 0.3492711 0.4864325 0.15516262 -0.33126125 1.2677004 -0.42421257 -0.2808622 -0.4389059 0.70860267 0.03420439 -0.11075618 -1.3818797 -1.3656566 1.5256202 -0.42302313 0.5918738 -0.14675607 1.0633595 0.18482277 -1.1387798 -0.38445875 0.97725034 -0.2723842 0.37683642 -1.5307006 -0.19393976 0.3308267
" -0.46810237 0.31826168 0.3273307 1.4436194 -1.1433346 -0.55646527 -0.09712829 1.7057248 -1.3095425 -1.1457381 -0.039266843 -0.3120673 -0.1186801 1.2483788 -0.023786504 -0.38886735 -0.24202555 0.2783965 -0.48384866 -0.58124936 0.763116 0.43714368 -0.58852637 0.40025508 -0.66263974 0.19875878 -0.33183742 0.95875 -1.1963835 1.2327294 -0.44859946 -0.6981761 0.194464 -1.6064299 -0.19220206 -0.46291748 -0.5563761 -0.9009781 -0.9439292 1.5290601 0.37078607 -0.6550048 -0.8701919 -0.12595749 1.4684292 -0.6927639 -0.3983065 0.3647994 1.2274089 -0.48671752 -0.06955346 0.68287396 0.8935798 -0.68370694 1.1236299 0.73288804 -1.6885629 -0.693881 1.3726693 0.2627591 -0.34626132 -0.74299985 -1.0929385 0.10613515 -1.34936 0.8843833 -0.48661017 0.106788635 0.14839087 0.2757433 1.4344667 0.48819178 0.18672234 -1.2639494 -0.2375909 1.3258746 1.0984219 -0.6715521 0.028490508 -0.34521922 -1.4502025 -0.9947703 0.9939091 -0.065177865 0.40043113 -0.08991552 -0.3083358 0.94492745 1.3886442 0.48572612 -0.34319392 -1.4656934 1.5868685 0.23901646 -0.48669016 -0.010614724 -0.0858648 -0.5173151 0.6349254 0.61173093
+ 0.081118196 2.4085925 -0.59454554 1.4637458 0.8747323 0.19706869 0.44013393 1.5303254 -1.7460642 -0.3691167 0.10670699 -1.4489008 0.7031221 -0.1991875 1.7773324 0.5193966 -0.2143612 0.047658022 0.44210863 -0.39774254 0.9099668 -0.0018063564 0.9464937 -1.1220661 -0.4064265 0.03442189 -1.2583472 -0.13462938 0.11213339 -0.73847884 0.011897074 -0.97182 -0.57268834 0.34667888 -0.40469104 0.726816 0.5398094 1.1715038 0.008274205 -0.5775812 -0.21911947 0.8625852 0.47527364 1.1449027 -0.8584618 -0.2864388 0.27038267 -0.37705702 -0.48362425 -0.4209045 0.86996627 -0.5146512 -0.22619073 -0.48382664 -0.5323883 -0.23413108 1.0265082 0.46434885 0.898651 -0.1328169 -0.46629107 0.4855096 0.80658275 0.32700816 0.42645845 1.4005408 0.7937988 0.89214766 -0.5036325 -0.10924271 -1.0898302 -0.24599564 0.458445 0.115297735 0.6937011 -0.4285197 0.026791284 1.2058096 -0.36146542 0.07028171 -1.2296885 0.30332118 0.31673 -0.0416388 -0.063080154 -1.0070134 1.4190552 -1.5841885 -0.18147758 -0.042674072 0.21683784 0.38520354 -0.012159242 0.43379223 2.2038002 0.18727392 0.08800153 0.5705711 -0.11768226 0.021232026
} -0.8159186 0.93959457 -0.27997085 0.34936577 -0.48884556 -0.43327084 -0.11540804 1.008134 -1.0820416 -0.8621634 -0.14961517 -0.29592988 0.5449489 0.69215137 0.6607927 0.49744865 1.0637817 0.7506354 -0.23506545 -1.1675439 0.0486391 0.14141245 0.8892456 -0.2708506 0.19353807 0.4184405 -0.3048975 1.0279527 0.006828525 0.23537695 0.8938684 -0.31552982 -0.2137826 -0.8823039 -0.50595593 -0.57668555 0.6461274 0.53104043 0.037198827 0.5537664 0.07071034 0.7484779 -0.3007698 0.09208672 -0.4403607 -0.2965416 -0.40453112 0.21928062 -0.6196876 0.15289989 0.57755405 0.08956862 -0.54104704 -0.25710368 -0.420772 -0.46487722 -0.44907293 -0.26376584 0.7012293 0.20752949 -0.4040029 0.1477915 0.8821429 0.8765071 0.26031628 0.9037217 0.35785294 0.15567373 -0.43431243 0.44342002 0.37517008 0.5019771 0.081835955 -0.4705166 -0.010624667 -0.18644163 0.8780567 0.73080826 -0.08278456 0.31015652 -0.7637598 -0.13351658 0.79364306 -0.3940759 -0.5578751 -1.6636012 0.36714885 -0.62802917 0.45095295 0.3863546 0.3717092 -0.07576942 0.6541322 -0.16297199 1.4372523 -0.17457736 0.34026673 -0.4041143 0.58443046 0.9375806
{ -0.1975634 0.24322239 -0.071266904 -0.035233375 -0.021690082 -0.14775959 -0.26650426 0.26866543 -0.24094547 -0.4732374 0.17565298 -0.03624446 0.22449812 0.27689484 0.6484238 0.70121586 0.4242917 0.26071796 0.09752877 -0.657505 0.095133245 -0.24336934 0.48614985 0.04610847 0.34503776 0.47559324 -0.61138487 0.29456133 0.2288044 0.4461042 0.24988504 0.018677989 -0.25658166 -0.28365192 -0.44447976 0.608612 0.03232606 -0.14646499 -0.27309796 0.02893325 -0.45123783 -0.06802846 -0.16060439 0.72665066 -0.28913483 -0.71302414 0.46609962 -0.6551433 -0.53446144 0.2196847 0.89034563 -0.37230223 -0.87210923 -0.39747643 0.028808948 0.23555484 -0.15308695 0.029475994 0.120292395 0.121451266 -0.38696122 -0.33834967 0.4670435 -0.05958114 0.07708959 0.7100145 0.35451022 0.100369275 -0.15006077 0.442445 -0.11535218 0.13353615 -0.08363193 0.041144375 -0.06262531 0.12068942 -0.17745513 0.86817986 0.0038526126 0.25910264 -0.24055734 0.6556468 0.019302724 0.36838412 0.115771346 -0.16982378 0.5770714 -0.16040173 0.14356068 -0.12395998 0.36611733 0.066385604 -0.1447454 -0.2620381 0.39697096 -0.39653972 0.5630788 -0.21512055 -0.02478375 -0.038312547
* 0.41757414 1.3494503 -0.5253439 1.3008096 0.7573251 0.007934659 0.3433802 1.0548201 -0.97416425 -0.19299516 0.18529436 -0.38683456 0.13173427 -0.588451 0.89436513 0.23002556 -0.57457066 -1.185727 0.34283057 -0.926872 0.7386359 -0.53123695 1.0893186 -1.2456447 -0.5648616 -0.09596195 -0.9056733 0.3969523 0.025000935 0.11707409 0.23602729 -0.598663 0.015575503 0.91505396 -0.10664784 1.0198168 -0.5683459 -0.11586838 0.20299307 -0.9665458 -0.22936864 0.18797453 0.08514942 0.91960526 -0.6589671 -0.5017695 0.8537222 -0.6607026 -0.25507796 0.0407403 0.7522693 -0.8220009 -0.38328955 -0.041812584 0.006459399 0.3120353 0.9120417 0.6028659 -0.45622754 -0.7031357 -0.3299063 0.23956682 0.17803206 -0.4908069 -0.48756787 1.1736786 0.64100057 0.6147096 -0.9036815 0.28854614 -1.2552558 0.20201473 0.24286534 0.2828877 0.1818182 -0.43122834 -0.5009929 0.63780636 -0.37182388 0.022485167 -0.27992532 0.99211895 -0.8728178 0.9740989 0.35186765 -0.16797245 0.83210415 -0.7680857 0.076644234 0.060455807 0.15224862 0.49689874 -0.99327195 0.109619044 0.94667345 -0.12253639 -0.072119825 0.24240476 0.31405523 -0.753773
if -0.33503547 0.43740058 0.18150054 -0.26113737 -0.34753135 -0.45445275 -0.17350122 0.6607076 -0.3517813 -0.85679823 0.16396263 -0.30572942 -0.019943666 0.3260235 0.744607 0.57278645 0.6138314 0.73249227 -0.12436349 -0.5010603 -0.20486507 -0.072325915 0.86822605 0.24918437 0.028885476 0.633925 -0.49584076 -0.10289913 0.17992052 0.0012374584 0.17007649 -0.039207045 -0.1844483 -0.92220354 -0.59719807 0.19824913 0.37970108 -0.16960455 -0.23946142 0.04498488 -0.2197648 0.17050542 -0.11269831 0.18792728 -0.093941644 -0.721682 0.10499383 -0.4514689 -0.45511618 0.1651353 0.8683482 -0.25911567 -0.6937231 -0.47680706 -0.2965226 -0.3214253 -0.22158955 0.04975947 0.5793528 0.32305875 -0.6333736 -0.3099164 0.91884565 0.70641357 0.6496524 1.1354301 0.17250821 0.37793177 -0.55390835 0.4457122 0.13132247 0.38894165 0.039715577 -0.15759727 0.20471649 0.1667012 -0.12381331 0.93238854 -0.16333236 0.3414893 -0.4679523 0.4399871 0.4959221 -0.048667513 -0.4384324 -0.95722204 1.5672177 -0.43104255 0.20568486 0.15196529 0.43265542 -0.26152426 0.1911802 -0.36414406 1.2525284 -0.37297928 0.4684068 -0.6512205 0.0910531 0.32852682
0 -0.2466923 1.2185292 -0.16350174 0.2759889 0.18030447 -0.10278425 0.082643285 0.7331033 -0.2545622 -0.38469756 -0.04484342 -0.6994012 0.07355147 0.24113886 1.1028923 0.71111417 0.681788 0.6078081 0.12890288 -0.47007385 0.5186732 0.202242 0.17790328 0.52999425 0.33711588 0.66616344 -0.98045844 0.02517727 -0.08180688 -0.12798735 0.10743977 -0.13086343 -0.17660266 -0.9612853 -0.49672785 0.4720658 0.8401615 0.9272053 -0.8292818 0.36905617 -0.27542996 0.27053198 0.29314482 0.6198668 -0.2357629 -0.52300876 -0.49145523 -0.3704643 0.38752988 0.09041153 0.49601316 -0.2677812 -0.4440446 -0.49278963 -0.64913315 0.0026472078 0.38905776 -0.08856099 0.55439997 0.8877251 -0.19205923 -0.359871 0.6168625 0.44913632 0.6760119 0.9134263 0.22346379 0.69342244 -0.08639736 0.03340071 -0.27479872 -0.0792739 0.37568226 -0.08512052 0.550282 0.20461299 0.25713643 1.7161559 0.36946797 -0.6982827 -1.1062819 0.25292397 0.7042872 -0.41198146 -0.57530946 -0.6655072 1.1612566 -0.45483947 0.03484749 -0.64686877 0.9374579 0.21032889 0.091213144 0.13143058 0.79269326 -0.2629318 0.31847292 -0.17697632 -0.79784477 0.59442705
] -0.21169241 2.3007007 -0.22341405 0.82383496 1.125437 0.3192184 0.2832617 2.0854676 -1.0368248 -0.6291835 0.30174425 -1.7401279 -1.2828363 0.26631114 0.103463486 0.27496332 0.0039762272 -0.16184656 0.8968692 -0.5420219 1.3052742 0.64695793 0.32443887 -0.119262785 -0.69996417 -0.85555285 -0.70887816 0.041774783 0.34599432 -0.33365944 -1.762573 -0.8749379 -0.62315536 -0.41493684 -0.5631422 0.6631404 1.3553655 0.6264073 -0.9933772 1.0082213 0.7601847 -0.20546888 1.0678529 0.824702 0.44592503 0.27377146 -0.6623799 -0.7184951 0.9919309 0.0833418 0.73837674 0.21839911 0.9785813 -0.34447002 -0.8467309 0.47546005 1.1319898 0.81865937 0.85672253 1.696971 -0.8382616 -0.57931787 -0.26837087 0.45257488 0.6056462 0.029124701 0.40445396 1.0995888 0.66771674 -0.38428667 -0.43202502 -0.85915333 1.35795 -0.9299527 0.18667535 0.0093846265 0.83045846 1.263107 0.5791096 -0.40122786 -1.2399379 0.122140735 0.789636 -1.225087 0.31346002 0.2075657 0.77783394 -0.02451705 0.008760695 -0.2149087 0.94834703 0.117356785 0.43942672 0.10176339 0.27251902 0.06856864 0.3686318 1.3366337 -1.0935023 1.1565834
[ -0.4777816 2.1724951 -0.39661837 1.1506867 0.9594545 0.37676623 0.08443365 2.01238 -1.2750473 -0.20514993 0.17648904 -1.6820179 -1.254826 0.5878573 0.038489465 0.17391846 -0.34166574 0.16482817 0.90530086 -0.19989048 0.9155924 0.61792064 0.08963855 -0.21967463 -0.58862764 -0.9324982 -0.6725538 0.10240751 0.3702188 -0.4453158 -1.8185692 -1.0003452 -0.70436704 0.010654956 -0.57562655 1.0838875 1.3877597 0.45432568 -0.9349744 0.9802451 0.7111135 -0.26882687 0.914403 1.1169461 0.41301444 0.46718436 -0.82902247 -0.98427236 0.9602022 -0.28955424 0.7043312 0.059686553 1.0461651 -0.22459666 -1.0007147 0.76757157 1.2216678 0.85605776 0.9652337 1.7930135 -0.70227176 -0.53501034 -0.4321753 0.27305838 0.7129398 -0.18682276 0.3571903 1.5037397 0.9683792 -0.18350972 -0.6065918 -0.8205969 1.3705918 -0.8534125 0.38544837 0.24979807 0.46091676 1.3962686 0.63902766 -0.6443176 -1.3796338 0.17210184 0.78252953 -1.0845945 0.28386998 0.3471717 0.660586 -0.36546257 0.2701209 0.018155703 0.7782838 0.22978902 0.2586161 -0.09490415 0.09054726 0.31730923 0.7353357 1.4618258 -0.889196 1.0465403
png_ptr -0.97246385 -0.42056546 0.59462476 -0.38327292 -0.838815 -1.0696468 -0.37956154 0.41154855 -0.06336446 -0.75002736 -0.25077397 0.3339162 -0.5413791 0.60286844 -0.22640356 0.5079414 0.647413 0.01534313 -0.91271996 -1.5738436 -0.24920332 -0.04303275 1.155356 0.67041016 0.3130828 1.0091578 -0.17560326 1.0114344 -0.5151749 0.77168745 0.9968203 0.19822371 0.57173365 -1.4295907 -0.40386957 -0.11329153 0.15207487 -1.0900226 -0.34859896 0.1688048 0.10614719 -0.5824153 -1.0806576 -0.64982194 0.06870567 -1.0209652 -0.3928407 0.05043443 0.025612637 0.47428647 0.6799302 -0.4661524 -0.17994227 -0.18217163 -0.19172929 0.34273183 -0.91559565 -0.04340432 -0.58011585 0.31654814 -0.12551104 -0.8289406 0.47812006 0.55749893 -0.06083023 1.329522 -0.46495962 0.4212161 -0.77319324 1.1281984 0.7670927 1.5340812 0.08899138 -0.4456253 -0.27549857 0.20470342 0.1748502 0.40169477 0.306938 -0.05553943 -0.18405241 0.20831423 0.24419464 0.22862427 -1.3424274 -0.83767647 0.47432244 0.38877308 0.945019 0.12998305 0.9417123 -0.17051776 0.09127363 -0.8738976 0.16296718 -0.60581195 -0.03718364 -1.7000953 0.5160671 0.33277622
1 -0.19740035 1.156029 -0.21452631 0.30138713 0.20648108 -0.03584913 0.118870676 0.7646734 -0.7634199 -0.35296664 -0.047346406 -0.75433505 0.05887599 0.2900902 0.55267626 0.17100416 0.39984486 0.4676762 0.15859413 -0.37769434 0.5414879 0.20776604 0.40838492 -0.078193575 -0.18072614 0.0740065 -0.5176722 0.21431603 -0.06745915 -0.1521195 -0.059069503 -0.4415716 -0.201026 -0.5516449 -0.30345464 0.1657837 0.5177988 0.6523912 -0.42136487 0.28840855 0.12240212 0.3481322 0.23225045 0.39008301 -0.14034161 -0.08203558 -0.56606764 -0.23833126 0.22426252 -0.21116643 0.48896167 -0.1674075 0.16423267 -0.4653132 -0.48322734 -0.06727105 0.28900123 0.09544633 0.43943033 0.55713934 -0.29156968 -0.2661278 0.2842464 0.51479673 0.2908592 0.71752274 0.1394617 0.5783177 -0.083115645 -0.045363657 -0.2038985 -0.030646143 0.49296477 -0.2671094 0.36010742 0.041238174 0.5560326 0.9450397 0.08614128 -0.27278045 -1.0125554 0.080303565 0.594929 -0.5423292 -0.3949986 -0.75407565 0.72726166 -0.5801831 0.21035191 -0.101639695 0.68535787 0.030443601 0.27362648 -0.011031673 0.8516484 -0.06697735 0.12525108 0.047855992 -0.40464666 0.59225523
i 0.1816017 1.9829491 -0.9775242 1.1499317 0.6722396 0.3763213 0.3076874 1.7710161 -0.87537056 -0.57778895 0.5514339 -1.3412867 0.27216083 0.6592545 1.8642612 1.3587964 0.14693405 0.79868966 0.9929371 -0.07208129 0.74786097 -0.0528671 -0.18745656 -0.18868425 0.14733006 0.33497575 -1.3490611 -0.33848038 0.2638183 -0.225128 -0.683481 -0.7194272 -0.80932695 -0.15507121 -0.67110467 1.0035388 0.87593615 1.6654428 -0.35262963 0.09495715 -0.41415372 0.4611447 0.8956367 1.5097246 -0.23539704 -0.07369702 -0.07377276 -0.51895183 0.16698308 0.08716763 0.5007115 -0.03495204 -0.42289144 -0.68436617 -0.27038383 0.13643484 0.8219376 0.19863227 1.5132973 0.90902066 -0.7165168 0.15768962 0.82722366 0.39033252 0.6800958 0.824207 0.7665217 1.2660694 0.45307738 -0.1598547 -0.35653248 -0.7419007 0.48734295 -0.00061478897 0.9508303 -0.104174085 0.17284648 1.8218523 0.31161407 -0.52451265 -1.4946929 0.16101846 0.7968782 -0.35433227 0.8243678 -0.2582506 1.3178557 -0.8746579 -0.22860086 -0.64433146 0.47636178 0.29207754 0.6117429 0.5935313 1.0120995 0.12354267 0.58613163 0.97640324 -0.8762131 0.71378547
int 0.26096147 0.7974439 -1.0548875 0.9616968 0.24708103 0.42693084 0.14851291 0.9564358 0.24816811 -0.34100297 0.41564688 0.23723353 0.3108533 0.35941008 0.86096543 1.0446028 -0.0775315 -0.599702 0.8281625 -0.8253452 0.6560665 -0.116450265 -0.16486496 -0.24173954 0.6341235 0.4564263 -1.194313 0.6385892 0.10629787 1.1474044 -0.1466935 -0.28432497 -0.26721415 0.27812842 -0.5819614 1.3020113 -0.6025713 0.1126639 -0.13485718 -0.32889795 -0.8920762 0.1261818 0.3267205 1.3798224 -0.15439875 -0.57129115 0.65277934 -0.7392788 -0.3199005 0.68810314 0.6183545 -0.25724086 -0.9227356 -0.44069156 0.78986174 0.6468643 0.35476258 0.17764166 -0.11065611 0.06586749 -0.3627575 -0.22443111 -0.0024760752 -0.84822136 -0.69604075 0.48460048 0.677277 0.69028157 -0.021122245 0.3361814 -0.5046354 0.21759571 0.037686978 -0.22338258 0.08703518 -0.4553305 -0.08472156 1.3500427 0.3567483 -0.42098287 -0.6115393 0.76325715 -0.4978262 0.99078506 1.3419257 0.54236436 0.1545628 -0.05624039 -0.27379736 -0.6732839 0.29152957 0.60078794 -0.4065374 -0.016225666 -0.3013299 -0.41295975 0.30240607 0.8846686 -0.25101796 0.13077165
< 0.49918723 1.9247837 -1.037868 0.2465695 0.17119326 0.04830765 0.46523935 1.1304842 -0.9675901 -0.6134971 0.7061635 -0.7043343 0.6354716 0.54261595 1.770596 0.97929054 0.46377572 1.3033909 0.5000642 0.28907704 0.42185435 -0.25553638 0.44368628 -0.4370165 -0.26520577 0.47642508 -1.1119002 -0.80899906 0.17957471 -0.2691962 0.04283457 -1.0944114 -0.7893914 -0.29242113 -0.69149894 1.3006408 0.27330592 1.3050475 -0.29633075 -0.5729779 -0.43593517 0.734626 0.84354734 1.2064847 -0.28859574 -0.2506103 -0.32427996 -0.8622597 -0.34616628 -0.39646003 1.1865265 -0.80599046 -1.0094544 -1.4461236 -0.55282766 -0.24384212 0.71303886 0.35837856 0.7489413 0.08036255 -0.9188647 0.26616994 1.0143747 0.43581116 0.49767405 1.9609698 0.572817 1.0297883 -0.26334468 0.0081158215 -0.8661455 -0.36277825 0.26840436 0.3273768 1.0104448 0.039977867 -0.20633267 1.8739965 -0.72819155 -0.04450666 -1.5425028 0.8456224 0.5379693 -0.133535 0.4617932 -1.0051161 1.8380903 -1.141868 -0.28540435 -0.55881774 0.61719984 0.13055103 -0.11390341 0.2576327 1.9197531 -0.20368913 0.9192723 0.060332496 -0.9911853 0.46821615
else -0.61101836 1.2152318 -0.27955648 0.40079337 -0.37730184 -0.41558447 0.0053939912 1.0935645 -1.1648661 -0.7732401 0.09603153 -0.449826 0.40452856 0.6172627 0.61709094 0.36238077 0.8820841 0.7518666 -0.13079168 -0.886906 0.102869906 -0.021388387 0.9596847 -0.5160998 -0.17297001 0.16906576 -0.25009775 0.5617496 0.15182091 0.0024278285 0.63639414 -0.5484243 -0.29273584 -0.5775607 -0.39385885 -0.37258577 0.5867843 0.36487553 0.047806498 0.2534482 0.20248842 0.7157246 -0.03013649 0.08771266 -0.36264268 -0.06499371 -0.38495272 0.009608405 -0.4622256 -0.04078722 0.7094884 -0.0019691237 -0.49521467 -0.26396886 -0.60762864 -0.3926634 -0.015359497 -0.019506508 0.600103 0.14126422 -0.47244594 0.31075114 0.7103933 0.8412775 0.3895549 1.0397135 0.3813244 0.34023285 -0.47756672 0.3678192 0.024355484 0.21781312 0.28406057 -0.33493963 0.08246861 -0.16673443 0.572331 0.76416445 -0.3297555 0.3560452 -0.8234234 0.07047161 0.7741267 -0.3952368 -0.33168778 -1.4420866 0.64685327 -0.7241661 0.36345628 0.44399658 0.4206237 -0.07696064 0.39168358 -0.1469458 1.4261768 -0.019608794 0.42673227 -0.28488097 0.36023012 0.8979559
NULL -0.9331165 -0.049316324 0.8891262 -0.14596213 -0.7053726 -1.0340918 -0.32437313 0.46770975 0.09022566 -0.9517446 -0.120305575 0.0073084678 -0.49884066 0.29086554 0.2333922 0.6588483 0.6594695 0.18940113 -0.6965308 -1.260482 -0.21779211 -0.005545761 0.99619037 0.9419548 0.3771402 1.0792037 -0.4422745 0.6424363 -0.09716254 0.4474142 0.5999238 0.47754565 0.32789022 -1.3722076 -0.41863003 0.095139086 0.63831604 -0.91283506 -0.67914635 0.37714952 -0.02000211 -0.5371165 -0.8026965 -0.35025465 -0.024852749 -1.1871963 0.0711248 -0.24656841 0.021332283 0.51630116 0.90211123 -0.32483134 -0.6800681 -0.037803456 -0.46931162 0.3494853 -0.58185154 -0.0704359 -0.117078476 0.7028513 -0.19492856 -0.712714 0.6151682 0.47743255 0.5819448 0.977154 -0.31135857 0.10087899 -0.56496346 0.89017546 0.42899776 0.8633286 0.03869343 -0.22629443 -0.20925544 0.47883722 -0.20837162 0.73541194 0.46123737 -0.007582987 -0.09172653 0.40868428 0.5220317 -0.08433112 -1.1076623 -0.62303483 1.0792992 0.34326637 0.64727795 0.07624613 0.7982671 -0.17103963 -0.055917412 -0.6296926 0.38491425 -0.7849175 0.2931254 -1.5467387 0.20556152 0.106537476
return -0.79376286 0.70960206 -0.18258953 0.09714466 -0.54597235 -0.24157816 -0.25731775 0.9352242 -0.6697946 -0.77830523 -0.27730817 -0.11680634 0.43950278 0.7234314 0.528727 0.45515546 1.063927 0.7554804 -0.21666914 -1.154265 0.19701345 0.4188837 0.67080325 0.12954375 0.4580732 0.6001796 -0.3916171 1.1558857 -0.0015881436 0.37304828 0.6845134 -0.1726192 -0.21734606 -1.2414749 -0.5686295 -0.5783372 0.7337191 0.4205755 -0.27308828 0.80420595 -0.14431952 0.6722765 -0.27376974 0.11493789 -0.22727723 -0.56124264 -0.4695542 0.08995107 -0.53020066 0.24253052 0.5891809 0.11162629 -0.541506 -0.35619554 -0.33916813 -0.4272129 -0.5740328 -0.32369524 0.5974921 0.42971164 -0.38323975 -0.15787362 0.6605588 0.66838914 0.15249355 0.6873181 0.28090826 0.1952972 -0.28565177 0.47121337 0.49772322 0.66738266 0.096426755 -0.7092667 -0.04970028 -0.12787192 1.1447883 0.94221514 0.11178275 0.16667196 -0.93375635 -0.16844186 0.79607725 -0.43864855 -0.6458302 -1.4972752 0.2789925 -0.38857943 0.20142312 0.1931869 0.47838575 -0.11551071 0.707136 -0.2935346 1.2006902 -0.33697137 0.5036563 -0.2522951 0.26102817 0.98830867
! -0.7075159 0.41829133 0.7463836 -0.46144468 -0.39797446 -0.79177016 -0.2804002 0.608232 -0.30471718 -0.9901148 0.26724 -0.38268661 -0.56481576 0.38110006 0.41373593 0.7032595 0.7909932 0.86939925 -0.3827873 -0.562521 -0.3163695 0.00022553849 0.9663962 0.75130767 0.065580584 0.556267 -0.38229764 -0.27417997 0.38723913 -0.09651452 0.053544533 0.15553047 -0.2692804 -1.1201793 -0.56824726 0.46656752 0.93842584 -0.6891663 -0.65706486 0.3263228 -0.0048576514 -0.4411853 -0.07091961 0.046618085 0.08667563 -0.75769055 -0.025356332 -0.7239866 -0.15170798 0.18320335 1.2469791 -0.3175636 -0.7968624 -0.35430834 -0.8152456 0.16938554 -0.07736821 0.27386856 0.41661704 1.0173573 -0.5624725 -0.5798166 0.7229579 0.69633305 1.163166 0.9189511 -0.08255285 0.22304234 -0.20136502 0.585473 0.09437161 0.09800805 0.24303018 -0.13026966 0.022517163 0.56915414 -0.4704791 1.0988449 0.12501392 0.27155373 -0.21156985 0.6449847 0.67933327 -0.41158652 -0.69807494 -0.4927134 1.6462312 -0.0035023207 0.31695756 0.079520166 0.7305394 -0.30558082 -0.043538485 -0.5401652 0.79305017 -0.6048868 0.8049427 -1.0898328 -0.2859158 0.22327015
& -0.32236892 1.0287969 0.0070042172 -0.40113896 -0.09599769 -0.4935705 -0.17455296 0.7304907 -0.8861174 -0.8059052 0.21258084 -0.38598397 0.011395687 0.30679032 0.8203154 0.62405056 0.8257062 0.8070843 -0.11807319 -0.6390905 -0.09928703 -0.14236166 1.270171 -0.30588832 -0.1561934 0.26681837 -0.61815965 -0.27312598 0.42688215 -0.26360583 0.315521 -0.3719103 -0.42155722 -0.62022364 -0.61614186 0.5577873 0.5689039 0.020143902 -0.16286165 -0.18465845 -0.025090758 0.18634364 0.1800715 0.44667464 -0.42928317 -0.60018605 -0.10508718 -0.75166106 -0.6929942 -0.08429676 1.2810519 -0.61953235 -0.80274004 -0.59624314 -0.7486331 -0.27461368 0.17708024 0.4292668 0.28328565 0.28567272 -0.73297614 -0.08471176 1.0077925 0.7669293 0.9222941 1.5409234 0.45588443 0.47242925 -0.6525509 0.38661525 -0.42413464 0.18116547 0.1905298 -0.072896436 0.22436424 0.012277429 -0.31582978 1.2146773 -0.5563478 0.60969293 -0.4711292 0.8844178 0.3598138 -0.03295103 -0.54769504 -1.0549364 1.6546844 -0.6833623 0.18803407 0.17196345 0.6358228 -0.096421935 -0.21319689 -0.39390007 1.6564828 -0.32178873 0.5599666 -0.46560872 -0.14763252 0.40320045
static -0.054774996 0.4550711 -0.86293596 1.629761 0.2464522 -0.034371298 0.023890251 1.4501814 -0.35155395 -0.38159412 0.21316011 0.5064425 -0.33015114 0.18309511 0.17768979 0.4824169 -0.46308532 -1.7327472 0.3543905 -1.8692275 0.87512475 -0.63262314 0.7625343 -0.6650838 0.0065241125 0.07807079 -1.0723171 1.5333146 -0.40292132 1.6566883 0.14178467 -0.3655987 0.26636034 0.4674289 -0.45669404 1.3234833 -1.355397 -1.1929928 0.04206157 -0.34293374 -0.5618594 -0.513589 -0.45161486 1.0019794 -0.033448044 -1.0391623 1.0799431 -0.82941854 0.08108624 0.8126295 0.7722136 -0.50531036 -0.55630827 -0.14864019 1.1402812 1.0801668 0.067464165 0.34628794 -0.9475635 -0.63214034 -0.43430272 -0.5692875 -0.4823871 -1.2460661 -1.7956123 0.9836245 0.63888824 0.8369446 -0.7542876 1.035103 -0.36778167 0.9274112 0.18246369 -0.49540287 -0.33237708 -0.40471816 -0.14861733 0.70832926 0.14701943 -0.16918412 -0.3669946 1.1843032 -1.132941 1.8430158 1.1317302 0.5391494 -0.04548258 0.5030036 0.5792248 -0.053776864 0.32440203 0.3951341 -0.71896774 -0.4909602 -0.56871945 -0.37905928 0.17694762 0.20297024 0.7597165 -0.44513857
pp -0.30930978 0.35183012 0.005112969 0.31964222 0.29397184 -0.41427866 0.21888041 -0.20235008 0.4499309 0.06543868 -0.12529221 0.041854907 -1.0351181 0.051768456 -0.511051 -0.25805476 0.22048162 -0.96579593 -0.57620835 -1.1647655 0.074526556 -0.55747175 1.0293205 0.7102495 -0.19472322 0.38484982 -0.39360863 0.93036866 -0.9021428 0.50924784 0.8837314 -0.19880329 0.9303866 -0.59378207 -0.2844935 0.32688627 -0.3503026 -0.4905119 -0.6002944 -0.26202467 -0.17261064 -0.4499442 -0.7317763 -0.14294198 -0.24241853 -0.6445953 -0.42795387 -0.38708577 1.050792 0.5644751 -0.111780405 -0.8598503 0.5078363 -0.20587942 -0.17598642 0.51961684 0.16790004 0.30714867 -1.4707028 0.0014315291 0.37705278 -1.1736062 -0.04010521 -0.22410868 -0.81985664 0.9143857 -0.3948672 0.9421249 -0.9644101 0.61922467 -0.26203108 1.3207197 0.71207273 -0.18964903 0.0076055652 -0.24082448 -0.317686 0.7899032 0.5495756 -1.2367097 -0.5122029 0.58595395 -0.3759862 0.33560804 -0.93029976 -0.70141095 0.58163667 0.13915886 0.8508887 -0.41055182 1.254973 0.440145 -0.7580622 -0.93035746 -0.36670068 -0.21126404 -0.07984399 -1.0668265 0.19113396 -0.040700275
dp 0.07331234 1.2637349 -0.36409366 0.34818217 0.5562123 -0.22419228 0.4751401 0.05189072 -0.27978262 0.3206397 -0.28226525 -0.28740305 -0.24466945 -0.3298386 0.30294073 -0.043857455 0.3469903 -0.746012 -0.33468947 -0.93616426 0.37248537 -0.47459188 1.202158 -0.100446895 -0.39204934 0.16004169 -0.3665042 0.33170497 -0.4305637 -0.098432824 1.0836518 -0.4733268 0.5869863 -0.08244756 -0.23004912 0.6824627 -0.054678507 0.22645503 -0.36274087 -0.7750153 0.021569148 0.17673431 -0.033708245 0.12672278 -0.6612898 -0.21712795 -0.59564376 -0.5317043 0.56221926 0.051775042 0.17450598 -1.1036295 0.00934923 -0.31211042 -0.85751784 0.13023745 0.906981 0.545084 -1.2168527 -0.39077273 0.30520126 -0.46533272 0.31702322 0.01764961 -0.41225362 1.5207089 0.012458808 1.0390737 -1.1874535 0.47252437 -1.1462792 0.67928904 0.7724743 0.39405087 0.3964306 -0.3768408 -0.39469996 1.2748293 -0.08371745 -0.8807426 -0.6077611 0.8169238 -0.49911118 0.33681807 -1.0026115 -1.0624149 0.94815457 -0.58928853 0.40948543 -0.5809128 1.2242745 0.7895962 -1.2775861 -0.34131193 0.6363329 -0.059982188 -0.12249586 -0.919738 -0.018172141 -0.029962698
pm -0.16451535 0.8016559 0.04699852 -0.12775101 0.14556514 -0.48477548 0.12878408 0.29534438 -0.6057012 -0.04434579 -0.25398484 -0.18007249 -0.24593927 -0.11892227 0.6094059 0.06829091 0.8968697 -0.33079457 -0.71693534 -1.2539879 0.10458622 -0.37335807 1.2184672 -0.05937845 -0.49481192 0.41307497 -0.039569475 0.3053729 -0.49712476 -0.1914458 1.2377045 -0.32954583 0.5962435 -0.9506529 -0.1937849 0.30337116 0.1819883 -0.039102897 -0.5238338 -0.2782469 0.3922186 0.21385975 0.018177353 -0.250593 -0.2991593 -0.2390302 -1.22908 -0.23391925 0.7258763 -0.1233395 0.22055283 -0.98466986 -0.3282559 -0.20446458 -1.2209464 -0.2589255 0.7475655 0.2833144 -0.7206112 -0.22097062 -0.11411695 -0.45720682 0.6292652 0.7014149 -0.0637081 2.048775 -0.12352038 0.99359155 -1.6369864 0.68382204 -0.7133682 0.89527935 0.54437643 0.23389477 0.51953244 0.065741204 -0.0044248146 1.5082184 -0.2541795 -0.84783137 -0.78743756 0.67949116 -0.20144397 0.20319612 -1.5773901 -1.3001518 1.1602967 -0.47876835 0.77753335 -0.28026488 1.18959 0.3881053 -1.1421707 -0.11913373 0.91728044 -0.045501597 -0.1470512 -1.5446362 -0.12999462 0.18497822
pos -0.46871638 1.2774708 0.8009449 2.0199323 0.7066836 -0.1311725 -0.2473713 1.4005245 -0.444202 -0.17173323 -0.99096704 -0.9538761 -0.5878446 -0.77668494 1.239076 -0.6394627 -0.28205734 -1.3696826 -0.51133066 -1.6838108 1.980205 0.63726574 0.08582309 0.9406539 0.19722131 0.75023186 -2.0590863 1.3411882 -1.7648627 -0.37332383 0.26875332 0.10465784 1.1660428 -2.0239453 -0.014842434 -0.06634906 0.5739781 0.43022746 -2.168493 1.3877345 -0.57659197 -0.16100013 -1.0957761 0.48978388 -0.12664711 -2.4706454 0.068010814 0.3458382 2.0391753 0.10894067 -0.34368268 -0.11107679 0.8155532 0.6492085 0.123197325 0.3679355 -0.10961752 -0.8449393 0.2526824 0.6772569 0.58303434 -1.0887418 -0.36965916 -0.3629857 -0.49516082 0.9406433 0.06228675 0.57030505 -0.8062464 -0.18817854 -0.0154349785 0.8686852 0.59491724 -1.0452676 0.3414947 0.88885754 1.037238 1.4297724 0.9560212 -1.8243303 -1.7232118 -0.64568496 0.20666789 0.37251836 -2.4546976 -0.6755191 1.1429437 -0.115348235 0.6595147 -0.23571365 0.6062431 -0.06477741 0.2684188 0.49646387 1.0012637 -0.13563891 -1.1023649 -0.19373004 -0.14001064 -0.6432635
info_ptr -0.91409767 0.016890382 0.27215958 -0.6198598 -0.68588656 -0.98785925 -0.20431992 0.3033637 0.030024135 -0.68205965 -0.05204279 0.14361902 -0.4493852 0.6242305 -0.005439454 0.84020925 0.9722315 0.29154095 -0.6423831 -1.4203386 -0.42829454 -0.21545589 1.3135291 0.5329552 0.3222229 0.99265856 -0.16852283 0.75810456 -0.1812995 0.61341715 1.0457834 0.1276975 0.36098975 -1.1706848 -0.5861869 0.28347653 0.5122225 -0.6178564 -0.27437133 -0.1415769 0.25728643 -0.3744405 -0.54854834 -0.4743024 -0.16951133 -0.6288029 -0.6490719 -0.13800453 -0.18170427 0.42496663 0.90944433 -0.56532556 -0.38606223 -0.3451074 -0.8108428 0.28190383 -0.3450627 0.27054477 -0.6462864 0.37266734 -0.22034161 -0.65354115 0.8786822 0.72116274 0.39048392 1.413989 -0.29374364 0.7137661 -0.75914687 1.1366255 0.28525972 1.2792732 0.2020079 -0.046085093 0.058519967 0.026157005 -0.093500406 0.9901285 0.27421153 -0.061153326 -0.1921975 0.5206335 0.33827004 0.017829794 -1.185683 -1.0209172 0.74237007 0.13480857 0.78184193 -0.09473214 1.295127 0.19133434 -0.34645647 -0.9224781 0.38985744 -0.61774784 0.21909128 -1.5849328 0.19683158 0.56775564
void 0.12585333 -0.02912082 -0.7216075 1.3861 -0.13891134 -0.33445546 -0.1360036 1.2687027 -0.034535635 -0.78762597 0.46458897 0.73699737 -0.57970995 0.17173287 0.31229296 0.5614068 -0.5404917 -1.7550412 0.016838362 -1.9365333 0.3693173 -0.7538552 0.9550551 -0.60452783 0.12954989 0.41610134 -0.78296834 1.5393262 -0.49984258 1.7066035 0.39903823 -0.49938166 0.63996816 0.06152452 -0.32482395 0.9674926 -1.5818738 -1.693469 0.2549376 -0.5251647 -0.574842 -0.64649504 -0.8363972 0.5481378 0.11765903 -1.335343 1.1085671 -0.7156343 0.023279466 0.9771068 0.5039267 -0.77734625 -0.53833216 -0.02856143 1.475577 0.88781977 -0.15287662 0.4287492 -1.0310799 -0.6131914 -0.49307305 -0.5531363 -0.23407799 -1.0051644 -1.8593911 1.3222444 0.4526546 0.88003665 -1.1487893 1.2570227 -0.019813843 1.3056062 0.25974324 -0.48562375 -0.35410383 -0.37139478 -0.43152383 0.381667 0.007996622 -0.24453798 -0.14512773 0.9560005 -1.2348386 2.0274682 1.0116276 0.43466905 0.202898 0.38938498 0.7013303 0.20769693 -0.012222589 0.2803701 -0.5871215 -0.6012731 -0.44533458 -0.39944506 0.15139878 -0.30665866 1.180019 -0.76250064
fprintf -0.40350726 -0.13415015 0.22237872 1.2597206 -1.2781799 -0.49221537 -0.26906177 1.3685747 -1.0694786 -1.5148517 0.016528424 0.009319189 -0.05500833 1.4583522 0.67598796 0.33150434 0.11821199 0.7076146 -0.31983405 -0.3252185 0.045193423 0.027564662 -0.3208836 0.79452336 0.124713875 0.5766019 -0.55304813 0.7342214 -0.8447503 1.4842902 -0.22615929 -0.47818986 0.038314138 -1.8452898 -0.27249458 -0.31703824 -0.5950379 -0.47487947 -0.31571028 1.3162427 -0.66466045 -0.3535849 -1.0769031 0.4191828 1.2559441 -1.0994481 0.29546908 0.266775 0.17370836 -0.14421993 0.15796812 0.9490719 0.12437746 -0.7652851 1.616154 0.30864167 -2.0080805 -1.008794 1.6061321 0.22627439 -0.69254863 -0.92389137 -0.26724538 0.357056 -0.9537657 0.8471628 -0.09329885 -0.004395892 0.1297363 0.3725644 1.7566106 0.65961534 -0.5793477 -1.0173179 0.21690588 0.650824 0.5304307 -0.22518383 0.4213085 -0.2061664 -0.9737902 -0.8487378 1.2633606 -0.17583992 0.6724173 -0.22613148 0.59564745 0.13860454 1.1091787 0.53254384 -0.4967141 -1.7479653 1.9103817 -0.16729775 -0.16349119 -0.26385367 0.05130162 -0.69500077 1.03505 0.4147305
stderr -0.5844886 -0.07501816 0.16606209 1.3193038 -1.4338083 -0.51121414 -0.54617465 1.8054745 -0.959295 -1.6100383 0.39801446 -0.4409461 0.5489599 1.6250681 0.6706038 0.018273959 0.028499939 0.8937444 -0.4017871 -0.3792602 0.67474777 0.23197488 -0.6442016 0.6782335 -0.28952336 0.41655922 -0.5584889 0.69913244 -0.8673741 1.4422865 -0.86647475 -0.516019 0.12289951 -1.757973 -0.5806264 -0.2926406 -0.687601 -1.0359457 -0.6118101 1.4903594 -0.15133323 -0.32903928 -0.67706394 0.10330635 1.3894944 -0.9051539 0.36334667 0.017371573 0.47288138 -0.19029519 0.042528182 0.5330242 0.3660632 -0.85954016 2.092439 0.31183907 -1.7757895 -0.7083715 2.0145733 0.00485804 -0.63053757 -0.9948432 -0.31968564 0.14879592 -1.5766377 1.2469164 -0.23240381 0.33309615 -0.035490036 0.5870147 2.0879629 0.62838703 0.091177605 -1.3437328 0.020520225 1.3112799 0.94344836 -0.33839518 -0.16251102 0.25140452 -1.5526069 -0.70360553 1.1575345 0.3919516 1.0970187 -0.057891224 0.41028455 0.7751046 1.1727651 0.752875 -0.47588003 -1.7284235 2.1887627 -0.07737616 -0.1858305 0.016546415 -0.13250563 -0.41285738 0.63525754 0.75852066
/ 0.51409644 1.0927156 -0.7674219 1.0095177 -0.032654513 0.075259015 0.3809962 1.2041439 -1.2623346 -0.39288723 0.52696604 -0.27792355 0.37201318 0.23627003 0.57386726 0.07275868 -0.49395853 -0.103785574 0.5011506 -0.06239352 0.69468707 -0.24303983 0.19678138 -1.2440504 -1.0899888 -0.31698275 -0.2573514 0.16438633 -0.24011764 0.3642729 -0.06435752 -1.0530343 -0.2882356 0.4443817 0.054283045 0.44949773 -0.7404655 0.041777186 0.054211564 -0.35064945 0.23162635 0.33753234 0.21051979 0.5097013 0.26335067 0.27591166 -0.0271065 -0.15597573 0.26877877 -0.5200379 0.5494742 -0.13424298 -0.054952115 -0.6435535 0.28365198 0.2915409 0.33378664 0.24172218 0.40574923 -0.62408525 -0.6985839 0.5006268 -0.30188322 -0.18078974 -0.7956965 1.1542518 0.29059923 0.46965897 -0.3607064 0.03156559 -0.60907114 -0.22972327 0.22632308 -0.07778103 0.2131979 0.07600291 0.28142664 -0.014044833 -0.7724364 0.08574922 -1.0810353 0.23978944 -0.07955128 0.40240175 0.95302683 -0.39537427 0.09252506 -0.3425744 0.38021052 0.23309618 -0.19223602 -0.15487912 0.058769003 0.4695995 0.5981845 0.16186701 0.084767915 0.44674712 0.07245509 0.03656086
for 0.18266825 1.3619143 -0.94896257 0.9467802 0.06297956 0.3794844 0.24037313 1.2767706 -0.30274907 -0.47301823 0.44081825 -0.6182683 0.5911889 0.62058973 1.5553302 1.0848987 0.09573695 0.7574663 0.7324412 -0.0012124856 0.5909868 0.066025525 -0.55403286 0.14377849 0.36797202 0.6866931 -1.2572157 -0.07651062 -0.09564997 0.2298429 -0.3906956 -0.5458464 -0.54303026 -0.51646125 -0.6313963 0.72789663 0.34913266 1.3184556 -0.4736949 0.2796368 -0.74419355 0.5431522 0.41343036 1.1830297 0.033937644 -0.54441845 0.15798114 -0.25331074 0.032502644 0.18850303 0.3945995 0.11619171 -0.5965215 -0.8100971 0.31963763 -0.041878726 0.113234304 -0.20906073 1.3077717 0.40977246 -0.54803324 0.021600764 0.51404977 0.025095355 0.1096056 0.7515518 0.55464053 0.84624374 0.30139765 -0.06436201 0.009886853 -0.21610743 0.065193936 -0.1735696 0.6916793 0.019260734 0.35337713 1.4367201 0.26817974 -0.42330143 -1.4872311 -0.07549924 0.7017442 -0.053294126 0.8053229 -0.40464914 0.81080973 -0.50565135 -0.24759938 -0.5955517 0.12895079 0.071196765 0.75647426 0.42877144 0.835519 -0.096074045 0.54046494 0.7798126 -0.5897374 0.6233983
&& -0.47557744 0.6799035 0.5080067 -0.6986128 -0.28109825 -0.73601824 -0.1232173 0.7410685 -0.3387872 -0.88534975 0.3788533 -0.44755593 -0.6251392 0.2983493 0.42109144 0.8007784 0.847845 0.9007936 -0.12071992 -0.48423067 -0.22918458 -0.046720512 1.0851376 0.42496908 -0.18744618 0.48970553 -0.39072272 -0.5458411 0.5452515 -0.17548513 -0.08957887 -0.0035283084 -0.40200552 -0.957902 -0.659244 0.74215955 0.8821565 -0.54915035 -0.72890157 0.13244843 0.2230171 -0.35646933 0.23036185 0.19232795 0.117986046 -0.56322026 -0.2304162 -0.9515583 -0.100720234 0.11216771 1.4307128 -0.5128345 -0.9213711 -0.5177072 -1.1550504 0.15226851 0.2258268 0.45617852 0.2957957 0.9569812 -0.774401 -0.43472382 0.7564154 0.7871493 1.2669594 1.1763692 0.018906862 0.38461113 -0.26563638 0.52041775 -0.30276945 -0.09648778 0.3979811 0.006776124 0.08167323 0.60109746 -0.52347827 1.277208 -0.16535465 0.35263193 -0.3052911 0.9038753 0.5949087 -0.45563936 -0.5629041 -0.5208672 1.832687 -0.043835524 0.17321616 -0.06201338 0.88593596 -0.12215608 -0.37317672 -0.45949644 0.98033994 -0.527096 0.94671917 -0.8999301 -0.6256655 0.39050353
2 -0.012727874 1.5334257 -0.5468169 0.6002238 0.5149823 0.22663528 0.21327393 0.94026196 -0.9474078 -0.33301777 0.104981914 -0.8573573 0.08724705 0.20693602 0.7273327 0.21606848 0.10787819 0.35262495 0.4807098 -0.16488957 0.7416309 0.1385187 0.5835937 -0.44213778 -0.20001669 -0.16051891 -0.7290137 0.1430204 0.1572121 -0.21408273 -0.34444258 -0.67844456 -0.41661656 -0.030913651 -0.29322892 0.52017665 0.39005503 0.8137595 -0.22052313 0.0028402216 -0.10668717 0.53787905 0.49185047 0.77524143 -0.3110993 0.017258648 -0.2880707 -0.5267737 -0.0050210706 -0.24600182 0.691864 -0.30452734 0.0997805 -0.5801045 -0.37873417 -0.029828668 0.636721 0.39977726 0.3964624 0.47200373 -0.43028593 -0.0907564 0.2557315 0.24457297 0.21546109 0.67265105 0.40897352 0.77914745 -0.03260803 -0.10099129 -0.58006793 -0.18860915 0.5550577 -0.2736419 0.42240214 -0.29625365 0.40655327 1.0954616 -0.0052230037 -0.17164628 -1.1289655 0.33939117 0.4046541 -0.44124934 0.029248806 -0.6628774 0.87044376 -0.9147805 -0.06159754 -0.13009009 0.5891959 0.17515135 0.09220032 -0.012994231 1.0381787 -0.050207656 0.24695496 0.5131997 -0.5060263 0.50162226
8 0.18584324 1.6395615 -0.48577502 -0.09848477 0.35414726 -0.15263204 0.3360933 0.5496437 -0.9947106 -0.25323653 0.100248426 -0.6490793 0.28361756 -0.027499933 1.1274016 0.2547384 0.5272427 0.51504713 -0.009861413 -0.13449384 0.47204253 -0.16608818 1.0977006 -0.52103925 -0.40473437 0.12070194 -0.72013396 -0.44160628 0.10205348 -0.5973682 0.39350516 -0.74620426 -0.19064762 -0.2460935 -0.31560156 0.82420933 0.3180158 0.9757078 -0.115572 -0.6326089 -0.02936364 0.69725114 0.56328726 0.630878 -0.6324494 -0.22012776 -0.58861583 -0.5865035 -0.19075584 -0.4576663 0.8682279 -0.971778 -0.31775656 -0.8207503 -0.8587675 -0.38934416 0.8778334 0.5300699 -0.06273715 -0.09201603 -0.40907055 0.050444875 0.7889987 0.5442836 0.44890597 1.850073 0.37769544 0.9626245 -0.8063501 0.09824037 -1.0232517 0.104980245 0.46851853 0.23302336 0.7550163 -0.15528156 -0.1004397 1.4964045 -0.64677864 -0.1315175 -1.046244 0.8596852 0.16364408 -0.15366557 -0.58582854 -1.208378 1.6358804 -1.1590348 -0.023323007 -0.30264783 0.943519 0.25756624 -0.6758151 -0.047070783 1.8453633 -0.08763838 0.15313312 -0.3328624 -0.5579774 0.23548836
png_uint_32 0.15963183 0.516921 -0.92490745 0.603698 0.20231424 0.2912205 0.0045637935 0.55284727 0.2905359 -0.2270483 0.17275251 0.2573739 0.26168334 0.21242362 0.7244637 0.73699623 -0.15702447 -0.44450825 0.6133771 -0.58495855 0.55293053 -0.12244543 0.020431358 -0.04911604 0.7720892 0.58206975 -1.2044309 0.66550773 -0.114001945 0.98187697 -0.03877943 -0.29631686 -0.21849069 0.072306626 -0.5255145 1.1109204 -0.61589354 0.086150795 -0.07199429 -0.34353876 -1.0231383 0.097748704 0.009370898 1.0182303 -0.25061226 -0.7889878 0.6399405 -0.6985389 -0.4300521 0.55967075 0.727674 -0.43535638 -0.6623497 -0.6243615 0.83172303 0.47045267 0.12843859 0.15257403 -0.31851164 0.028282383 -0.25936532 -0.42517954 0.006584928 -0.8314777 -0.65181774 0.6375765 0.500989 0.6992649 -0.07263925 0.3935117 -0.34735054 0.47315174 0.04869128 -0.25585073 0.14214256 -0.52767456 -0.11253175 1.2390696 0.32109523 -0.32520553 -0.70063263 0.77182627 -0.4320968 0.9403014 0.8953453 0.2452293 0.26715738 -0.15591621 -0.20748068 -0.65555894 0.44398332 0.45585942 -0.21556477 -0.3424511 -0.048297442 -0.4495345 0.3136856 0.46225193 -0.21923484 -0.013087013
ps -0.4488629 0.46090242 0.39511275 0.2181428 0.1316714 -0.7229706 0.13374904 0.20282522 0.10076751 -0.09569647 -0.3466541 -0.02827083 -0.9986871 -0.29397765 -0.15511507 -0.14405592 0.23191121 -0.98560303 -0.89495707 -1.4501934 0.07310356 -0.43428177 1.0819649 0.49717018 -0.27573678 0.49904966 -0.12234704 0.7747831 -0.80460685 0.21863487 0.98375756 -0.06655314 0.994987 -0.84790856 -0.21280234 0.34244964 0.05268425 -0.7258676 -0.85409194 -0.1230313 0.3343948 -0.58374506 -0.6470913 -0.4819245 -0.19217704 -0.8560588 -0.5720472 -0.3729953 1.1455089 0.44075206 0.12055934 -0.8429154 0.10374816 0.062349766 -0.7900411 0.43176043 0.29922473 0.30856884 -1.2472112 0.05437974 0.27960682 -0.8224149 0.10992382 -0.023130687 -0.4147786 1.315985 -0.37734315 0.7975521 -1.3337657 0.8232097 -0.40475896 1.0776111 0.6635714 0.039081268 0.03368092 0.16617982 -0.2711407 0.9528359 0.24322325 -1.0378519 -0.32626426 0.67014045 -0.35118863 0.37758783 -1.4242684 -0.78476155 0.74320203 0.3542994 0.93449575 -0.28962675 1.1476278 0.38856423 -1.0016391 -0.45368695 -0.02279712 -0.20913176 -0.10071001 -1.5599011 0.34941825 -0.25421596
in 0.06709471 0.6840986 0.043174457 0.97729427 -0.39761 -0.8803781 0.45078805 1.2947879 -1.3200814 -0.46285328 0.31549922 -0.31908086 -0.6250792 0.083937205 -0.14144018 -0.17117617 -0.529063 -0.5633274 -0.36023566 -0.7903493 0.3612466 -0.48218617 0.91635954 -0.9185756 -1.8940662 -0.06061449 0.2553657 0.47527447 -0.90070724 0.42858577 0.42731157 -1.0826051 0.69779444 -0.12120683 0.1827889 0.12553757 -0.6147101 -1.0399238 -0.24046528 0.0030795191 1.2899671 -0.43918094 -0.5581171 -0.3997664 0.6209124 0.15763316 -0.59235823 -0.1153361 1.2797775 -0.6339587 0.41429508 -0.32338503 0.6875107 -0.32142863 -0.21352643 0.71043617 0.22395211 0.27932772 -0.085023485 -0.408324 -0.5467587 -0.1362217 -0.49657655 0.43905187 -0.73865974 1.8462954 -0.49144122 0.6706949 -0.9909012 0.54314536 -0.4852016 0.25588605 0.54156685 0.009209923 0.10716076 0.56655216 0.07896938 -0.45483127 -0.57347673 -0.519914 -0.7711774 0.35955432 0.07144154 0.31157893 -0.35385096 -0.49295554 0.4633557 0.22922817 1.3815072 0.32795146 0.20612818 -0.49532965 -0.24888504 0.14888418 0.0077189235 0.08325172 -0.20605019 -0.89060897 0.44769326 -0.16321427
#endif -0.9002608 0.099207185 -0.19038299 0.23597476 -0.927392 -0.59444994 -0.43046775 0.9060363 -0.44561464 -1.1034403 0.090183355 0.29492137 0.52554166 0.9656995 0.55771273 0.76228327 0.9604063 0.6163458 -0.26255202 -1.3373382 -0.11288169 -0.024731573 0.603777 0.07487181 0.6206839 0.7888608 -0.60084844 1.139477 -0.11023679 0.8491732 0.8355725 0.04856056 -0.12768203 -1.1120831 -0.57072186 -0.3930096 0.041507203 -0.33495554 -0.11967126 0.5607021 -0.4169008 0.29229888 -0.7607447 0.11565477 -0.09638697 -0.9635575 0.1958401 0.19489902 -0.7442793 0.47654465 0.75088423 0.16775164 -0.8367428 -0.22265385 0.35440707 -0.06698531 -1.020488 -0.4722625 0.5231653 0.12427792 -0.43864095 -0.15761416 0.6677142 0.39887446 -0.18894327 0.8608653 0.31584406 -0.020012343 -0.3131031 0.71637166 0.8923561 0.8811934 -0.22928087 -0.6367896 -0.27549517 0.018601555 0.6102097 0.5045981 -0.07325363 0.43636498 -0.58359796 -0.052216064 0.59555954 0.2732867 -0.13495545 -1.000497 0.238161 -0.010104223 0.4628722 0.39890975 0.17153522 -0.24256866 0.7110679 -0.40792122 0.8772429 -0.35850835 0.3211051 -0.5765693 0.7194477 0.7284337
row 0.11484833 1.2409856 -0.85697246 0.71617746 0.39908937 0.3706547 0.22100064 0.5751829 -0.2056304 -0.25137025 0.10732445 -0.37442175 0.6583505 0.19185163 1.2887487 0.7543684 0.07614592 0.22237252 0.5298023 -0.15326653 0.5360498 0.025513357 0.1426674 -0.012458351 0.6624346 0.5725279 -1.3772229 0.11157218 -0.022045096 0.1902696 0.041844495 -0.42056438 -0.47731355 -0.06260656 -0.5557987 0.9698531 -0.059563328 0.8521836 -0.13922605 -0.4931994 -1.0394409 0.5055049 0.22069798 1.0768733 -0.49255335 -0.6297515 0.35057506 -0.58009404 -0.49155912 0.11220353 0.6826498 -0.5217063 -0.58908266 -0.8067929 0.24805023 -0.009424262 0.3038711 0.123383336 0.25433832 0.058032252 -0.11173071 -0.19613837 0.510868 -0.2970528 -0.1484125 0.86679554 0.5097955 0.77446014 -0.030609366 0.09102812 -0.46146578 0.29031727 0.12095111 -0.022099078 0.58634317 -0.4625819 -0.15855679 1.4655024 0.19997998 -0.32293847 -1.0588175 0.41677025 0.12352202 0.31782952 0.31988275 -0.4159464 0.8130476 -0.8937038 -0.39656433 -0.7181691 0.52516353 0.4767615 0.032174475 -0.09355039 0.9478724 -0.29694104 0.2757264 0.37900913 -0.49286908 0.1842066
bit_depth 0.26594514 1.2349069 -0.6530928 -0.11380239 0.45905373 0.14053246 0.29522395 -0.06874422 -0.06307089 0.05998786 -0.09162513 0.043641638 0.51105 0.099764675 0.8722524 0.25232095 0.6672343 0.19772527 0.061367035 -0.3266818 0.5850766 -0.13026142 0.7697977 0.058137696 0.40944177 0.36299807 -0.89305323 0.20501596 -0.019126447 0.03380395 0.67935985 -0.36847883 -0.01284584 -0.26375067 -0.37204286 0.9315061 -0.0960911 0.9308559 -0.21473333 -0.659848 -0.8147315 0.81290954 0.50690246 0.85940206 -0.7741816 -0.35759547 -0.40371886 -0.6387095 -0.3782433 -0.041853283 0.6050779 -1.04879 -0.60128295 -0.9031849 -0.3008258 -0.2563821 0.6458822 0.34172168 -0.68835944 -0.23902474 0.12017387 -0.41736206 0.5846587 -0.09285582 -0.20231174 1.3127081 0.3160029 0.8098658 -0.70076585 0.1434261 -0.95484394 0.5993891 0.19722942 0.101556666 0.6564093 -0.5722739 -0.063989356 1.7705734 -0.08050026 -0.4983674 -0.92554444 0.9542857 -0.3034374 0.13727073 -0.42154524 -0.87268317 1.1558578 -1.1231397 -0.31140047 -0.70043474 1.1428841 0.5775142 -0.9296384 -0.39705822 1.0400234 -0.46199408 0.054525115 -0.23144077 -0.6608764 0.20939326
buffer -0.2462954 0.8153096 0.43782306 1.0786947 0.6972014 0.046593457 -0.16184595 0.6578058 -0.3385775 0.075224675 -0.6247669 -0.62774223 -0.3951446 -0.53012925 0.7768848 -0.45761546 -0.13275272 -0.94397813 -0.36547557 -0.93615276 1.0917231 0.31556377 0.16799302 0.4866568 0.09263785 0.24370083 -1.1570264 0.56623024 -1.0106851 -0.41767114 0.1328133 0.0045169257 0.60604054 -1.0464934 -0.029688526 0.14968653 0.30671737 0.27138206 -1.1752628 0.56878203 -0.32436967 -0.04447714 -0.44320902 0.30149472 -0.17736281 -1.2410012 -0.08834656 0.09826915 1.1422485 0.023716733 -0.2501891 -0.25106546 0.59567124 0.35587052 -0.04497495 0.10314573 0.18047385 -0.24432679 -0.010650491 0.29898354 0.37145963 -0.6552379 -0.19284073 -0.17588659 -0.24029872 0.61297 0.07943839 0.47149226 -0.5536089 -0.13833371 -0.140196 0.53043973 0.41639075 -0.5179224 0.29480043 0.32709444 0.43475452 0.9627818 0.5172417 -1.0750291 -0.9255868 -0.24446017 -0.05791626 0.23140135 -1.4822237 -0.31312 0.7796065 -0.22777112 0.35198754 -0.20617482 0.45627543 0.063217446 -0.107111886 0.26004717 0.5942976 0.057493217 -0.7383597 -0.12634493 -0.13085905 -0.4140688
char 0.10628668 0.84292465 -0.21477059 1.2373619 0.82443213 0.2885655 -0.04763291 1.0171818 -0.44836798 -0.16351885 -0.028838592 -0.46363342 -0.21143682 -0.46295187 0.75199395 0.18689929 -0.6947244 -1.2168552 0.4981844 -0.7445656 0.9411291 7.702265e-05 0.36075538 -0.60763973 0.12246914 -0.15492062 -1.1499524 0.38502726 -0.07720615 0.081412256 -0.52890253 -0.18889539 -0.0011400675 0.39203748 -0.21480872 0.8272453 -0.27157798 -0.14565966 -0.21422191 -0.10354261 -0.45067903 -0.103448465 0.01415559 1.0473872 -0.36096096 -0.89241326 0.9238068 -0.5341498 -0.03623964 0.28061837 0.4220191 -0.2210122 -0.006170504 0.26315865 0.56732136 0.40571755 0.5733821 0.34294924 0.0402886 0.03399877 -0.16444972 -0.15080754 -0.16488385 -0.7173442 -0.348623 0.394198 0.6774743 0.530913 -0.31634596 0.03162899 -0.6429581 0.13228892 0.21029828 -0.42223504 0.07339437 -0.301728 -0.11387518 0.64176613 0.14411739 -0.1402235 -0.34274083 0.45036158 -0.60221297 0.8688956 0.3039888 0.49003047 0.6328289 -0.24345931 -0.10665823 -0.06071674 -0.12649159 0.32705683 -0.37576133 0.21005356 0.39207694 0.03740399 -0.29401943 0.94559926 0.19212432 -0.56141114
out 0.034413107 1.0915743 0.008509785 0.7747048 -0.29666921 -1.0718825 0.5031632 1.2009442 -1.3965409 -0.5584723 0.27837414 -0.4983559 -0.4574518 -0.05638619 0.43297037 0.2006371 -0.112421624 -0.42251766 -0.48393273 -1.167206 0.30362228 -0.72131246 1.542412 -0.9620554 -1.8381668 0.3483357 -0.03422502 0.41770366 -0.8234424 0.18195033 0.98355556 -1.0470551 0.8025211 -0.30527127 0.0028277258 0.3677103 -0.34343085 -0.61559606 -0.2898594 -0.4069484 1.2069541 -0.100441374 -0.554812 -0.25744718 0.08811241 -0.10666584 -0.67974615 -0.3189407 1.0681939 -0.5466308 0.76119936 -0.85009325 0.20057483 -0.47371492 -0.74240375 0.5001881 0.57285494 0.42460677 -0.37421608 -0.4659977 -0.61103266 -0.10780535 0.19350089 0.82059044 -0.29749617 2.612489 -0.33623332 0.94433486 -1.5149412 0.7479835 -0.91691476 0.44094184 0.6366917 0.37530896 0.39265853 0.4033059 -0.14085472 0.2926393 -0.67427075 -0.5980768 -0.85827357 0.7859802 0.080473825 0.33154774 -0.9439396 -1.2021526 1.2777098 -0.29520229 1.410164 0.17379473 0.78857857 -0.1536905 -0.7020071 0.04192146 0.81573224 -0.05687081 -0.14740235 -1.3676146 0.34159228 -0.19637318
|| -0.43732628 0.8849629 0.466979 -0.6226746 -0.20629445 -0.7032986 -0.061809454 0.7906569 -0.42025754 -0.8554948 0.32463458 -0.52449554 -0.6718045 0.3071904 0.4350125 0.6860811 0.7686295 0.8691334 -0.15494032 -0.4093846 -0.113811016 0.01438777 1.0724952 0.44899234 -0.2577988 0.4161942 -0.4248994 -0.5341828 0.4927249 -0.25400147 -0.13043158 -0.10431134 -0.3885326 -1.0010409 -0.60647136 0.8038827 0.9291186 -0.38491797 -0.81141186 0.13082841 0.2550595 -0.324125 0.30601627 0.20220298 0.13632171 -0.5238632 -0.4423066 -0.92827314 0.052672096 0.014768 1.4274743 -0.57407945 -0.7670943 -0.6175533 -1.2388631 0.1765401 0.3330838 0.47506368 0.25254664 1.0165275 -0.75654626 -0.49559426 0.70777816 0.78428364 1.2577095 1.1855603 -0.03340518 0.4854139 -0.24744289 0.4399036 -0.35849145 -0.11841589 0.48304048 0.0052438183 0.15594979 0.6068973 -0.41136277 1.3607689 -0.096355155 0.17280535 -0.46315938 0.88297194 0.6353217 -0.5996701 -0.634109 -0.59657687 1.8319573 -0.08708373 0.20313677 -0.075517744 1.0135329 -0.08714347 -0.41674152 -0.449569 1.0467509 -0.55560476 0.88576335 -0.9093293 -0.73899 0.38470712
that 0.02358475 1.0202355 -0.1465786 -0.06795872 0.026171764 -0.8079622 0.49730313 0.28424212 -0.61725336 -0.11466215 -0.04601799 0.2130566 -0.4232578 -0.081418976 0.06159325 -0.18050812 0.5189087 -0.79051703 -0.81244344 -1.3110263 0.2600279 -0.8524405 1.6623292 -0.39124054 -0.76642334 0.19804211 0.036703933 0.55174965 -0.42683613 0.27525595 1.5858094 -0.58974177 0.777998 -0.33185822 -0.11724289 0.74773604 -0.50970817 -0.40403625 -0.13112439 -1.0808703 0.36532766 0.073248856 -0.06956439 -0.12008675 -0.5544874 -0.38426125 -0.88620645 -0.4090939 0.44252244 -0.028223798 0.4656048 -1.5777068 -0.17235346 -0.5913845 -0.8064921 0.15781716 0.6016328 0.75011086 -1.578802 -0.89793116 0.07769022 -0.42431223 0.36337897 0.0153167425 -0.8482374 2.3371613 -0.08893974 1.1412505 -1.8657361 0.8614561 -1.096049 1.326285 0.58807355 0.3319523 0.3655126 -0.10972729 -0.41075373 1.0190624 -0.6222796 -0.4941572 -0.46704856 1.2507827 -0.81065816 0.6136431 -0.9664803 -1.2572148 1.0814062 -0.45287988 0.8094563 -0.14738567 1.3129841 0.49436098 -1.7254294 -0.4882072 0.84558874 -0.2757842 -0.18954243 -1.6795329 0.40028164 -0.16584939
png_byte 0.24131066 1.2802879 -0.5653429 0.44000432 0.9862678 0.38571224 0.17104281 0.48766938 -0.12632035 0.09904024 0.016662875 -0.25921595 -0.23559178 -0.19621862 0.6027275 0.19020838 -0.0647979 -0.650434 0.40880793 -0.5284203 0.80581677 -0.12871403 0.6011963 -0.23019405 0.19360386 -0.15796494 -1.0037748 0.18568854 0.08359165 -0.034769673 -0.23136036 -0.3691966 -0.069238335 0.180176 -0.2971244 1.19922 -0.06369222 0.49655402 -0.22172831 -0.5040071 -0.52730703 0.23834054 0.55704725 1.0463021 -0.5136931 -0.4852499 0.11697602 -0.75216824 0.027336586 0.2037842 0.52100986 -0.75664824 -0.10189425 -0.2750562 -0.12727411 0.18346563 1.0026711 0.6399747 -0.5707092 0.082985386 -0.008393591 -0.3876879 0.111557774 -0.46325323 -0.23463786 0.7049452 0.5307342 1.0143188 -0.36422458 0.04944404 -1.0119184 0.27141964 0.45578367 -0.15418757 0.3943224 -0.54094654 -0.23990251 1.5368959 0.21352254 -0.5036252 -0.6444768 0.89343876 -0.5813641 0.39671785 0.04424388 0.031365708 0.8833221 -0.6817921 -0.2880374 -0.49612913 0.81708837 0.67034835 -0.92688835 -0.2887602 0.523526 -0.18996634 -0.039888274 0.48659387 -0.4987901 -0.066290475
case -0.44723597 1.6379942 -0.5488848 1.0536736 -0.39435396 0.18275659 -0.07083898 1.985861 -1.4921949 -0.8845036 -0.5799989 -0.6313103 0.9051265 0.63044155 0.5943652 0.07053343 0.75475526 0.7431941 0.101100475 -1.0869608 1.1860127 1.2387915 0.5002849 -0.0950374 0.57200295 0.0597259 -0.89211804 1.5102804 0.28718922 0.4601119 -0.17242827 -0.5044124 -0.52870345 -1.118724 -0.6703072 -0.43567768 0.7714797 0.6588351 -0.16949598 1.0808451 -0.5848654 0.8715073 0.20969187 0.86121625 -0.11953719 -0.52650154 -0.34068584 -0.23515476 -0.7156653 -0.026033109 0.798619 0.2355093 -0.5298795 -0.7884779 0.24075279 -0.37844056 -0.56948805 -0.39041722 1.1469834 0.78841907 -0.6166594 -0.21939063 0.03571486 0.39843222 -0.30335775 0.34148884 0.5956784 0.18328734 0.20904328 0.18201853 0.3616226 0.08570089 0.549802 -1.2437086 -0.24765128 -0.027326928 1.9428356 0.7828914 0.09788163 0.34361744 -1.3942544 -0.11920609 0.8933015 -0.71575606 -0.016292008 -1.3622239 0.16653123 -0.66098404 -0.15999441 0.34997523 0.29578874 -0.29510918 1.2843648 -0.0015041154 1.7093242 -0.4597415 0.7816704 0.74816394 -0.014686871 0.8720142
sizeof -0.34296796 0.8387329 0.51666063 1.4519142 0.46077472 -0.1907259 -0.11962302 1.0099244 -0.25573146 -0.20616977 -0.6065402 -0.5826406 -0.52907157 -0.41172376 0.8006823 -0.32316506 -0.2605511 -1.0602757 -0.4621151 -1.3074281 1.2756932 0.34231827 0.17342356 0.63107187 0.12155793 0.600404 -1.4048753 1.0395 -1.267862 -0.008175047 0.24191359 0.0141214235 0.88642263 -1.335848 -0.16008323 0.19912532 0.2059749 -0.01780107 -1.5071793 0.7672875 -0.36670607 -0.25528312 -0.80966187 0.31381777 -0.020781983 -1.7333194 -0.008807009 0.08001065 1.4680655 0.15812191 -0.15383996 -0.26856095 0.50400406 0.3003835 0.13091388 0.4734626 -0.11771472 -0.45212236 -0.0007519847 0.37619284 0.38194475 -0.8694074 -0.30636886 -0.39953128 -0.60275227 0.87726814 -0.031893346 0.5691612 -0.74073786 0.11436117 -0.022007843 0.8361842 0.48943746 -0.7122327 0.22290552 0.60738325 0.6099812 1.0129054 0.63549083 -1.3140637 -1.1705658 -0.26233098 0.012049054 0.4968711 -1.5621707 -0.36083895 0.79515004 0.039803196 0.55884 -0.2652117 0.5068595 0.04369027 0.0408649 0.23212267 0.4694542 -0.13875659 -0.6872867 -0.32952613 0.02328957 -0.46000043
a 0.11546073 0.8637957 -0.19509362 0.72604096 -0.2465222 -0.5467825 0.50065005 0.9039895 -1.2480898 -0.29420403 0.25007325 -0.4330515 -0.050531074 0.08099452 0.15350871 -0.08098919 -0.254253 -0.11810591 -0.187744 -0.40882927 0.2652364 -0.3851891 0.76531404 -0.9952947 -1.5233647 -0.079736926 0.22590287 0.19416194 -0.5666101 0.07468535 0.48202926 -0.96680367 0.38463685 0.087722704 0.15769267 0.0045906226 -0.33861822 -0.2100463 -0.013967129 -0.21487778 1.033516 0.15056461 -0.20985316 -0.2375444 0.21255013 0.4514646 -0.626085 0.03750013 0.7523735 -0.6979929 0.34213698 -0.30856976 0.44437188 -0.35380664 -0.44388878 0.26968926 0.37567025 0.2290213 0.055388056 -0.45294458 -0.41547588 0.26391244 -0.12434656 0.5777955 -0.34928063 1.5072088 -0.2578369 0.52589554 -0.76614416 0.23826551 -0.5816695 0.055251423 0.42315465 0.18703279 0.30585074 0.21336104 0.19258834 -0.252519 -0.62584054 -0.32115072 -0.7472339 0.20019564 0.21412839 -0.017485337 -0.27532345 -0.82267874 0.40272662 -0.25877592 0.90714484 0.25208464 0.25074428 -0.2330618 -0.17307198 0.25610155 0.53043634 0.18612897 -0.14713597 -0.5548851 0.26813692 0.10382677
b 0.27665913 1.716131 -0.40031156 0.6792861 0.34553552 -0.4965639 0.73465246 1.0862525 -1.3455079 -0.20439333 0.36026156 -0.92365867 -0.27522507 -0.242201 0.49049214 0.2062886 -0.2089049 -0.14820945 0.0927691 -0.48433748 0.42277998 -0.45946935 1.3489103 -1.176024 -1.7071716 -0.037484903 -0.14156234 -0.12004855 -0.29570413 -0.3846256 0.4291145 -1.1452963 0.26732007 0.3572905 -0.029866574 0.5993231 0.11857335 0.26213866 -0.10467342 -0.6694898 1.0877988 0.3191954 0.23602487 0.19477737 -0.24213937 0.518215 -0.7470209 -0.49054942 0.76637506 -0.7001597 0.76267457 -0.78772503 0.2928155 -0.52510196 -1.1401081 0.24337351 1.3010536 0.7036466 -0.20991157 -0.1344343 -0.5548293 0.23056914 0.28783783 0.82695144 0.2786763 1.8819889 -0.06426663 0.99123645 -0.9094704 0.17929642 -1.4525905 -0.2497132 0.81987476 0.53481734 0.5837447 -0.014616315 -0.13761795 0.5931293 -0.55976975 -0.54894596 -0.8694914 0.8457463 0.15163915 -0.23802248 -0.5935709 -1.0764133 1.2449002 -0.77155256 0.66994387 -0.07568294 0.85165334 0.28720918 -0.7906456 0.15590222 1.1210526 0.08060901 0.07320954 -0.41863748 -0.28441206 0.02700105
x 0.3626152 1.4067696 -1.1255206 0.96840256 0.46791267 0.61794674 0.2321731 0.81236446 -0.3221143 -0.29390734 0.15900864 -0.48664275 0.793094 0.2520876 1.5171845 0.6060697 -0.06400944 0.26184136 0.85968924 0.0046047135 1.0974596 0.1440135 -0.30995902 -0.1395834 0.48123574 0.560291 -1.7112604 0.26529518 -0.29511184 0.41425863 -0.27348682 -0.68829286 -0.5082828 -0.2507164 -0.5553644 1.0734171 -0.30633086 1.1463321 -0.53224725 -0.076603666 -1.1444986 0.73255366 0.36495456 1.4132502 -0.26490423 -0.7099303 0.2654396 -0.61124134 -0.16198593 -0.0631095 0.71111554 -0.32312426 -0.3212939 -1.0999922 0.69010085 0.024596112 0.32822984 -0.050957005 0.58854556 0.17975818 -0.27634215 -0.32541016 0.16856617 -0.51929873 -0.43156168 0.916077 0.62834865 0.85852534 0.047329422 -0.21469662 -0.5538874 0.086645 0.09513973 -0.39523658 0.7010486 -0.42485178 0.35382262 1.7246178 0.15156771 -0.6021905 -1.7315463 0.41359606 0.22677849 0.37622583 0.6257182 -0.33708516 0.73788005 -0.91161436 -0.36620674 -0.8300303 0.48616478 0.23101369 0.2753135 0.09491979 0.8505372 -0.27883586 0.14130569 0.8473077 -0.72754794 0.39089063
this -0.07642551 0.7019059 -0.09058566 -0.13017693 -0.0019295322 -0.6355508 0.37481532 0.14268701 -0.43188414 -0.057963926 -0.10772701 0.2624351 -0.42716977 -0.074491106 -0.08866924 -0.16377214 0.44382113 -0.74363893 -0.71337265 -1.1392331 0.12138504 -0.72678196 1.3032893 -0.29094973 -0.5739619 0.121507436 0.17094974 0.57278585 -0.34426427 0.3455391 1.3122748 -0.46045855 0.65967005 -0.21339913 -0.07267257 0.5833258 -0.4447064 -0.46684417 -0.07091886 -0.8507393 0.33173743 -0.010487489 -0.07479896 -0.17022468 -0.41298917 -0.24660146 -0.82883316 -0.317242 0.3867329 0.065294236 0.32105225 -1.288006 -0.11723837 -0.40653387 -0.6713237 0.18293503 0.45520642 0.60671157 -1.4438713 -0.7730808 0.07093169 -0.36261874 0.20624141 -0.046480116 -0.80483717 1.834538 -0.09725689 0.97274387 -1.5261334 0.7916332 -0.84559566 1.1995314 0.5257707 0.23210257 0.23582333 -0.088087335 -0.27720317 0.773728 -0.44350484 -0.44440603 -0.3085562 0.99886763 -0.71469384 0.5581777 -0.73788226 -0.9703472 0.6724015 -0.21792954 0.70718765 -0.15428363 1.0939997 0.47273496 -1.501115 -0.44909102 0.5040757 -0.18030284 -0.16686916 -1.4414898 0.41190365 -0.091681324
3 -0.17779772 1.2319458 -0.16366512 0.33217207 0.40657035 0.027530806 0.11506828 0.7517756 -0.5885997 -0.2834221 -0.066349335 -0.70244944 -0.20412475 0.11678346 0.49089974 0.120648585 0.29410702 0.20912379 0.1648363 -0.36841318 0.5942256 0.2138285 0.4738546 -0.009668021 -0.11636948 -0.04970418 -0.63415176 0.13737512 -0.00242298 -0.219923 -0.24868707 -0.40455568 -0.17722966 -0.46419266 -0.30276123 0.35597625 0.5696338 0.543916 -0.5070027 0.28233021 0.03757939 0.27021497 0.33926412 0.4863195 -0.14336994 -0.1963566 -0.47413132 -0.38446483 0.3325916 -0.1158271 0.522918 -0.27367347 0.14702284 -0.36909014 -0.54372877 0.02729622 0.52387995 0.25035724 0.24678962 0.62880516 -0.22653626 -0.33769137 0.20161311 0.33004102 0.32111612 0.6078407 0.17429045 0.6677101 -0.11439968 -0.067029424 -0.39039403 -0.03711025 0.5752575 -0.3203716 0.31397253 -0.021291552 0.3329573 1.1102009 0.15440308 -0.38584355 -0.9074135 0.24199858 0.41458377 -0.43742877 -0.42009908 -0.51600105 0.83484465 -0.50253725 0.09022728 -0.17751662 0.7608158 0.16504827 -0.0130296135 -0.072138965 0.7593928 -0.10569488 0.11562711 0.16264762 -0.5116769 0.46857437
image -0.69790554 0.1828648 0.7927575 0.23883086 -0.4264191 -0.7293983 -0.067064196 0.39156055 -0.55244255 -0.4493208 -0.42050564 -0.18206827 -0.5312945 0.120169476 0.08083922 -0.34219387 0.3447229 -0.24402446 -0.951371 -1.0012691 0.099743865 0.06731687 0.6311794 0.5418957 -0.3617718 0.32576635 -0.025648331 0.5648032 -0.83270174 0.11445842 0.67525476 -0.11974873 0.65303826 -1.3527027 -0.14647682 -0.28776234 0.17080565 -0.720229 -0.7947725 0.5853923 0.511981 -0.46326447 -0.6789419 -0.6076352 0.23998947 -0.6264971 -0.7597898 0.025182866 0.8468338 -0.01928472 0.046127945 -0.27585298 0.2602928 -0.09481321 -0.40745085 0.10208772 -0.53409106 -0.064238206 -0.18006209 0.21697655 0.017170522 -0.5917294 -0.037394285 0.3351932 -0.25925252 1.1788436 -0.39773002 0.3817935 -0.9065098 0.5984318 0.3384843 0.8632242 0.3514209 -0.44310614 0.039474618 0.56324613 0.21307346 0.39448163 0.045348912 -0.5556015 -0.5559615 0.001363437 0.2930028 0.09485155 -1.3940042 -0.7481465 0.47786555 0.3783289 1.1082354 0.010907492 0.56812274 -0.43973383 -0.024381593 -0.147953 0.16874859 -0.08846122 -0.22082119 -1.4341629 0.45029455 0.08697343
unsigned 0.3244483 0.6758913 -0.756786 0.92812157 0.2822927 0.47964472 0.0679877 0.8069961 -0.05906313 -0.119001046 0.36251742 -0.03873214 0.36034068 0.39001676 0.8347677 0.71565604 -0.3793121 -0.37646875 0.8212474 -0.31461784 0.8000586 -0.00084934745 -0.45368853 -0.117169425 0.19111583 0.27414116 -1.1057059 0.3043367 -0.18463492 0.96139455 -0.40314603 -0.38366088 -0.31856728 0.26044112 -0.45421815 1.2911785 -0.61213976 0.1693165 -0.36690038 -0.13797787 -0.69553924 -0.017839596 0.33942226 1.4015929 0.0786048 -0.36103964 0.4628763 -0.655447 -0.095094316 0.13726462 0.68294346 -0.05601547 -0.4512685 -0.6999878 0.7947427 0.60077715 0.28686985 0.02369456 0.20503297 0.012924857 -0.37567094 -0.3378139 -0.27640367 -0.7102126 -0.68051577 0.5527276 0.5194368 0.72564596 0.14166917 0.09574993 -0.5128881 -0.05880399 -0.0064142556 -0.25052366 0.26812226 -0.05867771 -0.043816272 1.1777636 0.25937915 -0.49202847 -0.81809616 0.5909965 -0.2749426 0.79430014 1.2056291 0.6037512 0.2697961 0.008580101 -0.058761176 -0.6686096 0.28835908 0.20803885 -0.23257513 0.17543346 -0.30147117 -0.19314377 0.092244625 0.9381773 -0.44097793 0.12196255
msg -0.46547094 0.7236016 0.4917046 1.408593 0.23505843 -0.1528213 -0.2703829 1.1705891 -0.22956042 -0.33094782 -0.60597986 -0.55363756 -0.48391604 -0.22831564 0.65301466 -0.2803572 -0.18796673 -0.82566094 -0.3415926 -1.3017193 1.2819008 0.5406677 -0.018744124 0.77564114 0.303436 0.56665933 -1.4099512 1.1534814 -1.1307547 0.14275564 -0.011021253 0.12897694 0.70228577 -1.4560069 -0.15343098 -0.037710305 0.39735305 0.020628707 -1.4576489 1.1391433 -0.4481494 -0.25119367 -0.8682423 0.35511017 0.11756539 -1.7348796 0.14247333 0.23138493 1.3032591 0.2748238 -0.12698837 0.07654465 0.5211975 0.33742958 0.32535705 0.4379402 -0.40038213 -0.6075602 0.3463193 0.648734 0.27730334 -0.8492975 -0.30334318 -0.28559282 -0.41225708 0.43435812 0.035506196 0.38699588 -0.32421356 0.050813284 0.34590712 0.6839265 0.39932463 -0.9511334 0.030570654 0.66111827 0.8363553 0.8187285 0.7868958 -1.0789086 -1.1334789 -0.5202964 0.27153924 0.23714821 -1.3204045 -0.32013696 0.5835783 0.17347871 0.50079346 -0.024310958 0.3844921 -0.1267863 0.50492275 0.16031314 0.4058993 -0.19388951 -0.5241798 -0.043665424 0.056934312 -0.23699762
break -0.54721004 1.353578 -0.20821114 0.75103825 -0.27814898 -0.068977185 -0.06752456 1.5142593 -1.2788919 -0.7790638 -0.47445288 -0.7083359 0.6132709 0.4689213 0.5797235 0.07877366 0.7073715 0.67899776 -0.025508424 -0.93523675 0.7958564 0.8583393 0.54389584 -0.12115152 0.18619137 0.1437736 -0.6048911 1.1072364 0.15289992 0.08623064 0.1306681 -0.34273168 -0.30593395 -0.9873145 -0.4376879 -0.66195446 0.89283293 0.74944204 -0.24505861 0.9821962 -0.10270894 0.79589856 -0.047365643 0.44277522 -0.18814512 -0.42209414 -0.3490989 0.012778839 -0.38920078 -0.074086905 0.5126888 0.27615446 -0.19096653 -0.38429853 -0.2093689 -0.40057954 -0.41389745 -0.37287578 1.0395279 0.6634905 -0.40595597 -0.04392262 0.26868597 0.63709396 0.16416308 0.35274693 0.43127117 0.03066306 0.028375749 0.030424714 0.295883 0.05300954 0.41648322 -0.8474897 -0.10229683 0.0061291074 1.5110357 0.5928721 0.052311838 0.21583319 -1.1032673 -0.31558573 0.9580782 -0.7841166 -0.42662424 -1.3878695 0.34873936 -0.62585974 0.04048419 0.3810148 0.28859606 -0.27800858 1.087482 0.042763393 1.5340503 -0.2321743 0.4557405 0.33944932 0.08323076 0.81646436
# -0.76050574 0.95597833 -0.4832381 -0.17704324 -0.7127114 -0.664797 -0.14570841 0.700902 -0.5721709 -0.892978 -0.043727696 0.1515929 0.06996305 0.6488331 0.05362735 0.11289207 1.2743758 0.46941146 -0.2046698 -1.6024481 -0.13419688 -0.12354206 1.1242832 -0.20462766 -0.0036949634 0.36846286 -0.11571216 0.86645406 -0.15470584 0.44088957 1.3166265 -0.39670298 0.115611754 -0.9725762 -0.6096849 -0.49615568 0.23572725 0.0033212616 -0.27229878 0.30587366 0.14067973 0.32217178 -0.4342761 -0.27222732 -0.33770066 -0.41486213 -0.47379285 -0.14383163 -0.2269486 0.39127797 0.5623108 -0.09023312 -0.80852896 -0.17370999 -0.5587545 -0.273895 -0.4632519 -0.28910205 -0.043861967 -0.035418015 -0.15372674 0.11040057 0.46239784 0.6300005 0.12451596 1.0774536 0.4009925 0.013657877 -0.8657515 0.72216463 0.038058814 0.6053879 0.30997235 -0.3360947 -0.43335506 -0.09191902 0.3935435 0.9827945 -0.37307873 0.32447743 -0.62737775 0.38055018 0.40476248 0.071665905 -0.64230525 -1.8285186 0.10174376 -0.13908206 0.71526134 0.3592474 0.70552754 0.036899734 -0.10032931 -0.4932566 0.9836155 -0.20591909 0.66637933 -0.8030389 0.4134019 1.089313
y 0.29654583 1.0780166 -0.99302536 0.8815644 0.32710835 0.4256141 0.21633537 0.5841172 -0.28017822 -0.21760786 0.14646327 -0.430164 0.7934601 0.20822243 1.4160691 0.55028385 -0.10725017 0.28110743 0.62149644 0.13345648 0.78592026 0.00533993 -0.34199274 -0.054443203 0.4372427 0.65297335 -1.5387806 0.13098481 -0.38865155 0.37739098 -0.08247954 -0.59131527 -0.41749382 -0.2384175 -0.50767994 0.9762152 -0.37184978 0.96841913 -0.4380154 -0.20632364 -1.0348952 0.5740844 0.17699362 1.1619581 -0.29396284 -0.6733945 0.3241474 -0.4743441 -0.15236986 -0.036497917 0.62905383 -0.3684326 -0.32133162 -1.058389 0.593917 0.06458303 0.19709559 -0.096835755 0.5051899 0.10093116 -0.18986236 -0.23980491 0.19521728 -0.4801338 -0.3621735 1.01829 0.4922399 0.7690312 0.013006431 -0.114408836 -0.4621368 0.09623284 0.030419346 -0.20460343 0.6787036 -0.3520046 0.13712178 1.454798 0.090611294 -0.60278237 -1.53679 0.3967554 0.2068391 0.4116022 0.56170106 -0.3658687 0.7203867 -0.7496706 -0.18624458 -0.8128869 0.43194118 0.15128037 0.26441282 0.11010699 0.76511806 -0.19265568 0.18723936 0.44683877 -0.52682483 0.21596004
p -0.044602644 1.115104 -0.17495923 0.4458012 0.55650544 -0.10670798 0.3818266 0.6798287 -0.70367783 -0.14408252 0.2844753 -0.8800095 -0.78528494 -0.0042077824 -0.08894613 0.06499863 -0.14663194 -0.17414172 0.21342452 -0.25266218 0.29200205 -0.30438167 0.87751895 -0.3783033 -0.91612685 -0.30716276 -0.115733795 -0.0024515137 -0.0072630355 -0.2548802 -0.38641286 -0.65811425 0.025491945 0.32104433 -0.118565805 0.57397276 0.39346528 0.108502105 -0.17978494 -0.16304454 0.6283851 -0.019087644 0.3564012 0.29692414 -0.06486559 0.41802427 -0.4902553 -0.5731797 0.6885289 -0.13679492 0.4798246 -0.42614487 0.48697653 -0.29364276 -0.7986108 0.35583225 0.99926764 0.7110912 -0.24206457 0.43844184 -0.40274626 -0.21767041 0.05689393 0.4455687 0.25821355 0.6197008 0.025951048 0.91119397 -0.18042831 0.1029721 -0.7509464 -0.24748568 0.84521043 0.07572441 0.32716468 -0.12741408 -0.10872951 0.58755255 0.089216396 -0.43113863 -0.5444919 0.6056897 0.20736389 -0.5206495 -0.15461798 -0.36350375 0.88796395 -0.341036 0.38252866 -0.09200264 0.8284596 0.3000394 -0.3472405 -0.18187428 0.31145558 0.09973476 0.26450405 0.054078843 -0.38962737 0.24604943
double 0.30710486 0.8694003 -0.7652246 0.7712162 0.081991486 0.03247362 0.28360066 0.9885301 -0.509169 -0.31906268 0.43462473 -0.030876907 0.13474913 0.10629465 0.4783913 0.39758942 -0.25228328 -0.42363998 0.5077846 -0.5326209 0.47706312 -0.25692528 0.24848695 -0.7773273 -0.5213555 0.069932565 -0.5395225 0.33273563 -0.14664617 0.5937692 0.06641396 -0.6427009 -0.113064386 0.30828005 -0.17534341 0.813717 -0.6248045 -0.12701711 -0.06186969 -0.43978578 -0.013158274 0.15224895 0.15231183 0.58633393 0.094221406 -0.08095367 0.14199077 -0.40818393 0.12952729 -0.034398515 0.5798977 -0.29593608 -0.33442873 -0.40024695 0.23456265 0.4098763 0.42637068 0.24221905 -0.0740733 -0.2764403 -0.46412575 0.12645328 -0.13760567 -0.30532858 -0.5748418 0.91274846 0.3479791 0.5522485 -0.359303 0.22633861 -0.6933985 0.038500566 0.19321825 -0.029310957 0.11988887 -0.0834451 -0.036109805 0.5200651 -0.28424257 -0.23472774 -0.6811273 0.60513395 -0.32408413 0.63633806 0.76949847 -0.07349946 0.21911387 -0.1376384 0.19590674 -0.11050726 0.16218595 0.18183368 -0.34819072 0.12907836 0.22240841 -0.11420107 0.16556245 0.3029867 -0.031175513 0.022033438
g 0.20267151 1.5502878 -0.22919732 0.77194667 0.2713296 -0.5925531 0.7146764 1.0893534 -1.3253038 -0.21486388 0.3263685 -0.8627447 -0.5173945 -0.2272586 0.22248743 0.081231974 -0.29478484 -0.38953242 -0.0614827 -0.6400173 0.41852748 -0.45252413 1.3091323 -1.0464551 -1.7979872 -0.06680494 -0.035601106 0.010469131 -0.45282537 -0.24856248 0.4389999 -1.1130098 0.4329168 0.24030471 0.03811736 0.59329176 0.02421144 -0.10024424 -0.23328422 -0.58524704 1.2142063 0.029097391 0.04782049 0.014954367 -0.04945466 0.46055162 -0.777713 -0.40402415 1.0061554 -0.6767748 0.6766931 -0.7558087 0.49794757 -0.4023446 -1.0671891 0.45372558 1.1485378 0.7018953 -0.34948525 -0.17699921 -0.49276665 0.0815719 0.04539132 0.72208554 0.07324376 1.8501163 -0.19980608 0.9570903 -0.94516414 0.25886887 -1.3111591 -0.10127493 0.8378311 0.44980684 0.45340654 0.09957006 -0.1665829 0.40305537 -0.4706206 -0.6160103 -0.8214798 0.73433334 0.095545486 -0.16342069 -0.6572559 -0.9018841 1.0836326 -0.5088049 0.8590427 0.012654761 0.8152332 0.1902552 -0.78699744 0.10681324 0.7607742 0.08429094 -0.05174772 -0.61435264 -0.14670712 -0.012153483
text -0.7091289 0.7406147 0.506283 0.16179782 -0.117232315 -0.54628456 -0.034219302 0.93989116 -0.6901841 -0.4444187 -0.19150467 -0.6725626 -0.5904431 0.19083188 0.027054437 0.14279255 0.28660578 0.018645072 -0.35057214 -0.89903367 0.25541636 0.27501315 0.63375777 0.25043377 -0.34062257 0.21316846 -0.18405873 0.3908326 -0.25320604 -0.0645718 0.1677764 -0.20937234 0.10983805 -0.88665175 -0.34125942 0.06344603 0.9004968 -0.2544028 -0.65543693 0.39401716 0.6188259 -0.36449215 -0.20305987 -0.24584231 0.12029321 -0.34742162 -0.5954079 0.016128497 0.4455995 0.013383812 0.5799282 -0.1226592 0.31420904 -0.08713283 -0.9019888 0.2766265 0.0059911637 0.110498495 0.14134818 0.6346487 -0.22811276 -0.3570713 0.24884644 0.5333563 0.5086674 0.71132827 -0.16835295 0.5247015 -0.3142176 0.37449744 0.0722069 0.34986782 0.54025275 -0.36364982 0.034572512 0.45249358 0.3045456 0.62005436 0.25345984 -0.20291097 -0.5159375 -0.080333695 0.545392 -0.4425525 -1.0148071 -0.5757945 0.49048874 0.11369945 0.61001396 0.12661996 0.70423937 0.0041307397 0.09050127 -0.21590458 0.52199376 -0.18571253 0.055688553 -0.724372 -0.010359851 0.40907475
length -0.5525833 0.10673604 0.020125223 0.16982761 -0.35698086 -0.34189865 -0.23420429 0.5771653 -0.16108088 -0.5202671 -0.1164043 0.15800884 -0.06602987 0.4315351 0.13137859 0.44214272 0.30272123 0.037921317 -0.20698653 -0.94126284 0.11041114 0.12928122 0.40469345 0.2820397 0.42804286 0.5692993 -0.49663183 0.847003 -0.20401494 0.6034375 0.27044052 0.028602442 -0.0021482618 -0.70238906 -0.34330013 -0.009718886 0.10827298 -0.30318534 -0.14307766 0.32646084 -0.21547888 -0.12904857 -0.4945551 0.04336117 -0.027036903 -0.64829946 0.071003936 0.0053216424 -0.23852587 0.36986586 0.5174688 -0.043391146 -0.23533139 -0.18673767 0.1568391 0.19874743 -0.5347673 -0.095696725 0.033230588 0.30952936 -0.17106608 -0.41248435 0.16199565 0.110354744 -0.07466562 0.512979 0.06829424 0.18674475 -0.12334949 0.5029517 0.45263913 0.6967167 0.006751622 -0.43763316 -0.186403 0.010096994 0.31886205 0.45637226 0.3485812 0.0329775 -0.37232298 0.080307856 0.2593552 0.15176158 -0.2755116 -0.38263887 0.1419597 0.11743756 0.34148777 0.037744097 0.394153 -0.055301048 0.312437 -0.41539848 0.16458726 -0.38540426 0.17107841 -0.3706803 0.26256368 0.33333436
: -0.16516896 0.61768734 0.03983693 0.9853861 -0.49500924 -0.23692879 0.017653773 1.3227534 -1.0342838 -0.65771604 -0.002350714 -0.36612615 -0.2796573 0.72975564 0.16144654 -0.32440242 -0.18714525 0.15909414 -0.1831751 -0.2816936 0.6793773 0.2618765 -0.31223425 0.20286183 -0.6172345 -0.07081856 -0.3241151 0.45471033 -0.79835045 0.6831475 -0.44027483 -0.7388976 0.15582572 -1.0826749 -0.15409522 0.040750112 -0.27269337 -0.4213437 -0.7428533 0.9320815 0.2797972 -0.36360872 -0.30507177 0.13271435 0.9810493 -0.40732914 -0.4931973 0.037271254 1.0018046 -0.45639104 0.12502295 0.27799523 0.6232088 -0.6181851 0.54821604 0.43321294 -0.6860666 -0.2759327 0.8262737 0.17757405 -0.3985182 -0.5668661 -0.6895207 0.022314088 -0.95439076 0.8825029 -0.20966046 0.45430708 -0.070066795 0.1575202 0.6274095 0.2477639 0.3766562 -0.81946635 0.100278996 0.8603234 0.73556036 0.016325548 -0.08541777 -0.46692356 -1.2827526 -0.4024185 0.65526754 -0.12322062 0.22299643 -0.16352807 0.11752716 0.46772018 0.90919083 0.21599554 0.032707628 -0.87074226 0.8187075 0.15639848 -0.068221726 0.06428003 -0.005257626 -0.24346884 0.1633376 0.39837688
r 0.24637094 1.1661624 -0.18203013 0.56738484 0.12457647 -0.5957305 0.6042941 0.8604042 -1.0833552 -0.22133155 0.36642164 -0.61943656 -0.41682115 -0.21073128 0.27738908 0.16005397 -0.24113032 -0.26676497 -0.07942704 -0.5021102 0.20622396 -0.5562215 1.2029543 -0.9576767 -1.6084118 0.040762346 0.025099419 -0.07500319 -0.3855274 -0.16830288 0.50117636 -0.948196 0.4135151 0.26409942 0.032070726 0.5542329 -0.10329567 -0.19055516 -0.10061317 -0.6131704 1.0023704 0.03244302 -0.020248186 0.004926361 -0.035551924 0.36616266 -0.55965245 -0.42976636 0.80246955 -0.5838015 0.63851035 -0.6899967 0.22579722 -0.38518396 -0.89176667 0.3596397 0.9617215 0.58795327 -0.3110255 -0.2582171 -0.49326885 0.13548729 0.13574198 0.67051923 0.09084146 1.7416513 -0.1960224 0.78073937 -0.9155016 0.29629132 -1.1590804 -0.088829294 0.6000487 0.5394591 0.4225854 0.124365516 -0.3167533 0.28364536 -0.526342 -0.46654245 -0.59166825 0.7663838 0.04486703 -0.0061561926 -0.5044867 -0.7959936 1.067792 -0.45750466 0.7890943 0.019133538 0.66014713 0.099829994 -0.7430479 0.07240721 0.71222913 0.0332237 0.025355356 -0.67390233 -0.06474696 -0.15761155
PNG_CONST 0.21339111 0.8331093 -0.63119966 0.9429255 0.53127134 0.055271223 0.22968522 0.729988 -0.05069607 -0.012597377 0.08009889 0.32503054 -0.3458532 -0.103273205 0.19284458 0.12649906 -0.26067248 -1.4824415 0.19109489 -1.2911556 0.836519 -0.45557705 0.60417444 -0.36130983 -0.05237137 0.022897622 -0.82079196 0.90682924 -0.40488768 0.9549107 0.31821966 -0.4026002 0.35440204 0.26396465 -0.28114542 1.3162773 -0.93609303 -0.61873764 -0.29406592 -0.6371743 -0.435353 -0.26101127 0.006140829 0.80027187 -0.17577548 -0.6844358 0.31974307 -0.7324847 0.37328622 0.41825712 0.47076872 -0.84695345 -0.28603193 -0.24382205 0.40852723 0.75087523 0.5901044 0.46829054 -1.1925119 -0.5347482 0.006263288 -0.549854 -0.39251348 -1.0418162 -1.3536273 1.1040261 0.37856987 0.940249 -0.86577237 0.6036747 -0.9346729 0.80416155 0.3894877 -0.17300433 0.02234595 -0.2715717 -0.33818 1.0720762 0.06564232 -0.6659175 -0.4775648 1.1103876 -1.1278324 1.2727033 0.47510785 0.30124122 0.268663 0.059493605 0.31010297 -0.40027913 0.70308006 0.6359849 -1.2659113 -0.31621993 -0.29423293 -0.2740885 -0.09473365 -0.051865894 0.15522908 -0.3880991
4 -0.24816233 1.2743734 -0.14364696 0.42199245 0.321108 -0.04213142 0.071188316 0.8202887 -0.8265997 -0.29031786 -0.16363625 -0.7239187 0.101004295 0.07235882 0.7610723 0.18907425 0.34644356 0.29179463 0.048836503 -0.48119745 0.5737468 0.25745395 0.58913404 -0.09050629 -0.022448046 0.11652842 -0.7036968 0.20633374 -0.026762338 -0.32473582 0.045116026 -0.3830135 -0.19441077 -0.5170444 -0.3290309 0.30163077 0.63134795 0.62795466 -0.40430427 0.1631414 -0.03819605 0.4042838 0.20425445 0.4572084 -0.3266165 -0.3197747 -0.38720694 -0.26097468 0.04538257 -0.20073879 0.5592695 -0.30261907 -0.033695906 -0.33890957 -0.57807606 -0.13787751 0.3810625 0.13135704 0.38272223 0.447353 -0.20854597 -0.16874409 0.37900025 0.4086782 0.39184293 0.80174094 0.2733368 0.56514657 -0.23342639 0.018611578 -0.37028986 0.07192388 0.4194664 -0.22486669 0.34779853 -0.00972741 0.36492866 1.0985137 0.058772665 -0.2448863 -0.89757943 0.17209123 0.4229705 -0.35654807 -0.6318829 -0.7659674 0.8859758 -0.7245463 0.08441706 -0.09999923 0.6352645 0.12984978 0.035912048 -0.01660865 1.1439515 -0.110208444 0.12731372 0.0023939214 -0.33775496 0.35313657
name -0.3175544 0.40965036 0.43800068 0.91529113 0.29829863 -0.11560936 -0.2023184 0.7531189 -0.050160356 -0.14343005 -0.45297387 -0.27241787 -0.5791893 -0.2249707 0.23286693 -0.24736157 -0.23291692 -0.867717 -0.26353619 -0.9428122 0.9271645 0.33574402 -0.025828902 0.5772993 0.17527652 0.272675 -0.8523358 0.8300307 -0.79145336 0.19652775 -0.10077038 0.093616866 0.53408676 -0.9403469 -0.09457967 0.13565476 0.18239494 -0.2277617 -1.0879527 0.7871707 -0.19238588 -0.36901623 -0.5232938 0.19773908 0.1640868 -1.1748968 0.044338655 0.046084095 1.0513263 0.23008244 -0.0896124 0.00802043 0.41276956 0.30814704 0.18821335 0.4638856 -0.13816933 -0.30779877 -0.0066937525 0.40166295 0.23589309 -0.717511 -0.41624078 -0.3999282 -0.44368568 0.28269964 -0.023670804 0.30700532 -0.26429582 0.09895605 0.10745671 0.5150771 0.28653264 -0.64294106 -0.023041245 0.50363624 0.4825281 0.6072012 0.5949837 -0.8438332 -0.637793 -0.2286707 -0.0035827593 0.2711109 -0.8892383 0.072370164 0.26534146 0.3357856 0.38821045 -0.10238963 0.32344797 -0.033447288 0.035840552 0.09229463 -0.05239992 -0.13456747 -0.44759196 -0.06664121 0.008124483 -0.2465439
chunk -0.49654314 0.25656348 0.29729733 0.5136256 -0.49350533 -0.48640338 -0.118788555 1.0571276 -0.6055746 -0.5815407 -0.17536713 -0.08806503 -0.38608658 0.4417602 -0.18517496 -0.090018645 0.0013982798 -0.12572543 -0.34377095 -0.81887656 0.41756678 0.25279385 0.15595664 0.19469713 -0.24864528 0.17615652 -0.15286364 0.8129164 -0.47122726 0.5962745 -0.044625472 -0.26460212 0.17244765 -0.8826429 -0.15803353 -0.17625517 0.04447455 -0.7057238 -0.5230497 0.79470587 0.32974407 -0.46526384 -0.51528066 -0.19991522 0.56371105 -0.5363456 -0.2644662 0.059418786 0.5842743 -0.02619481 0.27349043 0.17660318 0.29020002 -0.17874603 0.16426046 0.4582156 -0.63448566 -0.16856189 0.33354107 0.32864457 -0.2237164 -0.4746514 -0.45942295 0.061348785 -0.49729782 0.5957073 -0.1964644 0.16735652 -0.126351 0.42357203 0.53993297 0.42263168 0.28754738 -0.6707662 -0.3033817 0.61521155 0.6165532 -0.054542348 0.11863586 -0.116328955 -0.6178139 -0.22771855 0.39227954 -0.03987942 -0.21617863 -0.17723714 -0.073716044 0.58425045 0.7580982 0.22448197 0.13563012 -0.49309233 0.4906613 -0.071370356 -0.1143015 -0.1779255 0.10391585 -0.42140648 0.31425327 0.3007579
file -0.33265957 0.19875292 0.34493273 0.5835535 -0.54312915 -0.5958918 -0.017048227 0.9064249 -0.76127267 -0.46226305 -0.15053308 -0.08206702 -0.46315384 0.39617425 -0.18960433 -0.2967622 -0.073577024 -0.29516807 -0.5444611 -0.755419 0.2908436 -0.027289556 0.2459006 0.035512287 -0.6992636 0.04031699 0.14679138 0.6634355 -0.6972783 0.6007561 0.20644914 -0.45624313 0.45975304 -0.77807623 -0.02370408 -0.20720024 -0.25608894 -0.81772465 -0.4686761 0.5934835 0.5859026 -0.49694952 -0.59258175 -0.4198365 0.61483437 -0.3449069 -0.44525647 0.102155454 0.8880627 -0.22340962 -0.0015382074 0.031039376 0.48592377 -0.18906702 0.14387369 0.4619426 -0.5543471 -0.1439352 0.13668115 -0.10440522 -0.1847723 -0.41642705 -0.51376235 0.12589434 -0.80348355 0.933346 -0.34295502 0.25437236 -0.50070566 0.46540606 0.4298601 0.4719837 0.28116652 -0.4675461 -0.16158852 0.68450904 0.433703 -0.25116855 -0.16992582 -0.2685657 -0.53064555 -0.20275386 0.23125523 0.16628364 -0.29545364 -0.25867316 -0.032129165 0.59665287 1.0525302 0.28495553 0.058811888 -0.5889664 0.24032138 0.02829072 -0.22688872 0.0060901647 -0.11594382 -0.7767517 0.5325237 0.12532246
#ifdef -0.6467865 0.38565308 -0.21203679 0.42832637 -0.619072 -0.5014862 -0.2188279 0.93175477 -0.4753115 -0.8823074 0.06256611 0.20183316 0.23628692 0.7132432 0.48607475 0.57962275 0.6669168 0.21189567 -0.21802829 -1.2543054 0.10088654 -0.053539764 0.632919 0.04148224 0.37514627 0.6228257 -0.6010691 1.0026798 -0.20910737 0.8249582 0.6880106 -0.12903552 -0.013992024 -0.88523114 -0.5125783 -0.017744469 -0.06266436 -0.34727022 -0.2007263 0.3395095 -0.31377286 0.12404641 -0.549665 0.20338869 -0.058971647 -0.8536906 0.1011544 -0.047500245 -0.3960467 0.3885005 0.68943167 -0.040242665 -0.6640338 -0.27281454 0.2548812 0.112462215 -0.66642797 -0.2410124 0.1940501 0.062411375 -0.35733494 -0.27763587 0.40603068 0.19105999 -0.31354788 0.96267027 0.26661563 0.18442225 -0.44073468 0.69542867 0.46967876 0.7929894 -0.057409894 -0.5553297 -0.16202278 0.052259997 0.37532714 0.65811974 -0.015892308 0.15716748 -0.59796596 0.17057545 0.31723857 0.33190635 -0.13017102 -0.7822606 0.3163141 0.0037842386 0.48642245 0.21314456 0.33582255 -0.15003279 0.3284775 -0.37119424 0.6582889 -0.36039412 0.27007928 -0.5486025 0.5142272 0.49402165
error -0.27474672 0.7824229 -0.098236635 0.77809 -0.2815202 -0.22842294 0.0044722147 1.0876552 -1.0763993 -0.66904485 0.052307088 -0.5097057 0.33146027 0.52594084 0.60337853 0.15576968 0.10985386 0.45519006 -0.05559778 -0.36658162 0.33142897 0.12159662 0.15481234 -0.2382785 -0.33344293 0.12966406 -0.35174274 0.36935717 -0.2772032 0.22920834 0.039682683 -0.55254525 -0.17459713 -0.5629073 -0.18918192 -0.21594056 0.11931788 0.17992106 -0.14807226 0.5272554 0.104064286 0.22699562 -0.23462714 0.23540655 0.19652091 -0.24268341 -0.0433267 0.12267795 0.06755745 -0.2973276 0.28046072 0.23040839 0.07543606 -0.3194152 0.18288754 -0.013265375 -0.4210341 -0.25979483 0.9968364 0.059985895 -0.36948296 0.009020366 0.10697207 0.39100686 -0.15880632 0.7102306 0.1828551 0.15007618 -0.08849638 0.10252094 0.34214196 0.019659624 0.11345608 -0.402311 0.09216594 0.30999294 0.50252116 0.11402829 -0.16756158 0.053216107 -0.8415983 -0.3094511 0.63524824 -0.19532709 0.105333626 -0.59763145 0.30525675 -0.24860945 0.451544 0.33867213 -0.11555607 -0.4891701 0.7882277 0.20019105 0.71060973 0.0803209 0.11009141 -0.060712334 0.34468442 0.3778336
dest 0.22522844 1.6322607 -0.5398258 1.0533108 0.6119501 -0.085255526 0.35443056 1.0002778 -1.3306704 -0.3071611 0.124435246 -0.69185495 0.57493055 -0.4034971 1.2425392 0.4407215 -0.29103816 -0.54007995 0.2653516 -0.72517645 0.5855288 -0.37699217 1.3200333 -1.4239256 -0.5228408 -0.0011122708 -0.92750293 0.045124304 0.13771297 -0.28676012 0.45162958 -0.72376156 -0.17769071 0.7690994 -0.26814535 0.8386262 -0.22533648 0.27874562 0.3968219 -1.0372903 -0.14479181 0.55346316 0.18476874 0.87637603 -0.91440886 -0.35782105 0.5659363 -0.49308386 -0.69585 -0.2621515 0.9633637 -0.79816526 -0.48144305 -0.28555578 -0.24938604 -0.018555937 0.93047357 0.6025391 -0.041574787 -0.7126334 -0.36808702 0.5315901 0.6266049 0.0068572434 0.01508114 1.6003683 0.7304419 0.6554818 -0.9896577 0.24045712 -1.2641108 0.14045475 0.17668359 0.30529284 0.41972563 -0.5196706 -0.42285407 0.7605482 -0.64398676 0.31620467 -0.51188564 0.87064093 -0.43776137 0.72876245 0.026603425 -0.78012335 1.20523 -1.2163252 0.01680318 0.10079553 0.20010197 0.46076274 -0.7404076 0.15786514 1.7224532 0.038087394 -0.0744025 0.1902479 0.34593365 -0.41335267
argv -0.14978817 0.93653977 -0.1653534 0.7809963 0.30697903 0.169584 -0.032201737 1.0538839 -0.8758782 -0.46335983 0.124481134 -0.7935814 0.054102026 0.32721686 0.5303935 0.19758922 -0.07059358 0.22769225 0.43602353 -0.1549403 0.52789193 0.19716336 0.14028074 -0.30877605 -0.13690145 -0.2421705 -0.46565136 0.16462639 0.14155929 -0.031637263 -0.6202424 -0.4340852 -0.47390512 -0.04548216 -0.27026477 0.11096376 0.37922153 0.29390728 -0.1310985 0.44799516 -0.054939874 0.21736215 0.24987853 0.60861164 0.010292718 -0.03231022 0.18165432 -0.21992967 -0.108692475 -0.09755653 0.38636956 0.22813116 0.16211897 -0.20069154 0.12521163 0.032727983 0.13879614 0.08620672 0.94482315 0.42181054 -0.42152455 -0.03939073 0.076150805 0.15868269 0.10604925 0.11607866 0.3630951 0.32916078 0.23729569 -0.09214419 0.058476903 -0.33141303 0.24213323 -0.485536 0.10468219 -0.027959501 0.38098386 0.42356575 0.09193758 0.15574276 -0.65020615 -0.111712456 0.4429523 -0.3015309 0.39601722 -0.09167273 0.45503998 -0.43010178 0.02434176 0.21915308 -0.05855571 -0.2098279 0.59326977 0.160735 0.5352054 0.098517284 0.16248147 0.6554755 -0.045525208 0.3828806
result -0.44285923 0.9679467 -0.016720934 0.27043372 -0.095065 -0.34385613 0.07526191 0.9170869 -0.779969 -0.519227 0.0227731 -0.5474961 -0.27499056 0.4185971 0.30559212 0.19125786 0.465598 0.3137568 -0.08897293 -0.6811893 0.27824298 0.063824795 0.6564198 -0.004588093 -0.34436545 0.10305659 -0.303517 0.32139698 -0.0810731 0.05663198 0.08644368 -0.44348618 -0.075472765 -0.6640306 -0.35945946 0.16910249 0.5257604 0.042300172 -0.4365283 0.35352996 0.3252973 0.07414428 0.035366174 0.1397627 0.025460605 -0.14653923 -0.58177614 -0.27613306 0.29047343 -0.043114323 0.5817482 -0.17713201 0.0054447534 -0.377509 -0.5977343 0.087538324 0.13519917 0.20330308 0.286945 0.48676187 -0.41508782 -0.28117883 0.27103677 0.52209806 0.20795771 0.9233262 0.03996336 0.6292615 -0.34070534 0.30716714 -0.10656366 0.21695758 0.4897201 -0.33644202 0.18390714 0.13012981 0.31292468 0.8538598 -0.02403321 -0.1422554 -0.77485514 0.23340659 0.55762005 -0.36184916 -0.4287063 -0.76916844 0.7143201 -0.2342319 0.50087523 0.04803307 0.6701641 -0.088907965 0.11145925 -0.17470592 0.6732971 -0.09493802 0.31440017 -0.37871975 -0.055478927 0.5884815
| -0.11208678 1.1133133 -0.24270026 -0.021465654 -0.07805517 -0.3862493 0.20255375 0.7964457 -0.8187484 -0.51476383 0.19112746 -0.44662386 -0.019638501 0.32749978 0.59410894 0.3887275 0.5093586 0.5490094 -0.07457897 -0.46905562 0.2020738 -0.13925233 0.8895912 -0.285644 -0.36530662 0.1785996 -0.40340626 -0.103437014 0.0842808 -0.11754763 0.2728139 -0.5482741 -0.1699038 -0.45955023 -0.4002727 0.5276107 0.36733586 0.26150033 -0.24949726 -0.21557859 0.20859501 0.23524503 0.23678075 0.28073823 -0.16685285 -0.21285255 -0.51703477 -0.46012092 -0.026239168 -0.20597342 0.8622792 -0.58650774 -0.39602363 -0.62226546 -0.7462914 -0.06365178 0.36159852 0.34474885 0.045165345 0.18995872 -0.5510851 -0.02253158 0.5874175 0.5621955 0.33351037 1.4239119 0.16764365 0.68619853 -0.5345855 0.33455297 -0.46845856 0.16683991 0.42051092 0.012348175 0.37982988 0.09470573 0.03142197 0.9767591 -0.45321915 0.057263892 -0.7203592 0.5967954 0.35181162 -0.18320695 -0.3574563 -0.95909846 1.1560233 -0.48027325 0.27888405 -0.031414703 0.7245151 0.075900756 -0.28445968 -0.13257295 1.1996212 -0.17875011 0.43407905 -0.4868004 -0.2652565 0.4111443
colour_type 0.0240355 0.81429195 -0.24215293 0.041282345 0.39101636 -0.056518372 0.19132319 0.06946492 0.07115754 0.040292036 -0.15818405 0.12657177 -0.14640875 -0.050058942 0.2432025 -0.043938544 0.3755954 -0.4670333 -0.17170945 -0.74456793 0.5501782 -0.17700055 0.69569343 0.15456535 0.17109977 0.20207326 -0.618352 0.44179708 -0.23645142 0.2332082 0.5318598 -0.17471698 0.29095683 -0.3657057 -0.2662873 0.7751047 -0.25150993 0.11482494 -0.35611373 -0.45071033 -0.43668458 0.20781688 0.16981089 0.4629183 -0.40290087 -0.57815444 -0.30763093 -0.51095724 0.19267032 0.154663 0.3797171 -0.8826481 -0.18895589 -0.39461458 -0.20262788 0.11453521 0.43865246 0.34305787 -0.9465755 -0.19497985 0.18752287 -0.5950551 0.11512492 -0.33999696 -0.50790256 1.0156801 0.111916535 0.76344025 -0.7358242 0.3089145 -0.6709049 0.7960042 0.3127029 -0.08083214 0.30177823 -0.2127151 -0.12245689 1.2931899 0.07899163 -0.62376636 -0.5914342 0.8178863 -0.5073251 0.3534342 -0.4940229 -0.4063254 0.76875687 -0.42608017 0.05631794 -0.47716522 1.018171 0.48053804 -1.0081998 -0.4577229 0.36705324 -0.35605383 -0.1177419 -0.42408404 -0.24493773 0.023117118
\n -0.22886284 0.56909454 -0.15032478 1.255558 -0.47623393 -0.089656234 -0.09435356 1.4995652 -0.9889523 -0.768805 0.12320404 -0.38917533 -0.04150938 0.88100153 0.33475664 -0.05171539 -0.26637667 0.11256627 0.06910993 -0.38755527 0.7481824 0.23008901 -0.460812 0.086742006 -0.3690167 -0.0013515796 -0.5206143 0.67309296 -0.65116286 0.8650086 -0.5717936 -0.646933 -0.07470943 -0.8622928 -0.24157189 0.02419413 -0.32408908 -0.36039606 -0.59230834 1.0002483 0.019167325 -0.30019504 -0.3348034 0.38784486 0.8934459 -0.4920529 -0.059308436 0.024352025 0.71290916 -0.22820774 0.13560429 0.44384956 0.48311412 -0.50213104 0.91063404 0.49943593 -0.79885787 -0.3539957 1.1074623 0.23459902 -0.45933953 -0.46393853 -0.6418358 -0.11793508 -1.0130087 0.6120941 0.02973198 0.38262612 0.18041168 0.16866907 0.77777773 0.17162804 0.23799358 -0.93442714 -0.03293894 0.705484 0.7729015 -0.02311479 0.07954336 -0.25713462 -1.2495213 -0.5274287 0.6479448 0.071816124 0.70680207 0.064681195 -0.0936835 0.42912942 0.766765 0.2564442 -0.22652312 -0.808638 1.1228073 0.20341033 -0.17431685 0.048920594 0.025943045 0.21656062 0.27622154 0.4605753
safecat -0.3399425 0.9127784 0.46619332 1.2747078 0.40317994 -0.14092189 -0.19323327 1.1290824 -0.36701027 -0.2827358 -0.52629834 -0.5979228 -0.45698908 -0.36552754 0.8013094 -0.2357077 -0.1734863 -0.7958979 -0.29994422 -1.2111486 1.2091547 0.42118698 0.18025228 0.5638959 0.09966562 0.51123995 -1.3271006 0.9137609 -0.99876064 -0.08778167 0.049495835 0.025789827 0.6427453 -1.2679154 -0.15778898 0.14278369 0.37341535 0.06953671 -1.3769158 0.8331543 -0.30823657 -0.13702458 -0.664273 0.36358252 -0.01798478 -1.6034937 0.04745891 0.040596727 1.2117299 0.14869198 0.013209301 -0.11631489 0.3788547 0.26289013 0.07199976 0.32240298 -0.09998682 -0.40448806 0.2518929 0.49797112 0.18974355 -0.7188899 -0.19287664 -0.19651757 -0.25544363 0.7135637 0.108051956 0.45378006 -0.51400054 0.031245973 -0.022204557 0.5682499 0.42628634 -0.733316 0.15246694 0.57384825 0.64533204 0.9890164 0.5826093 -1.024738 -1.0859705 -0.25707626 0.17303677 0.2750128 -1.3595638 -0.41824147 0.8583003 -0.027158009 0.45133227 -0.12306266 0.45018908 -0.0240306 0.15075886 0.21784617 0.6739525 -0.18361692 -0.49130934 -0.12275217 -0.05095506 -0.31581923
pass -0.09962847 0.66536814 -0.39004636 0.43555123 -0.16205671 0.05025289 -0.031587932 0.6899424 -0.19658467 -0.52043617 0.13487017 -0.27719373 0.503717 0.40260112 0.95681167 0.6130874 0.2602971 0.5815684 0.3284727 -0.15220918 0.39600465 0.13524562 -0.16088183 0.28256807 0.47459948 0.6456164 -1.0428182 0.19143662 -0.059063204 0.36980382 -0.08085569 -0.19724403 -0.3680361 -0.6279534 -0.49721006 0.44113842 0.11178639 0.47586077 -0.37614682 0.22814757 -0.68233126 0.2441781 -0.0027136263 0.7280432 -0.004349736 -0.6953988 0.26527607 -0.30588612 -0.2588251 0.14325571 0.6124636 -0.08453206 -0.55841297 -0.6970473 0.3615512 0.054903805 -0.2469915 -0.24813141 0.70144254 0.4175142 -0.3228377 -0.24877614 0.32221195 -0.055640705 0.081018515 0.6377613 0.31963602 0.31249836 0.14756002 0.11714124 0.10468264 0.046828724 -0.04246807 -0.26575223 0.25781354 -0.0003610398 0.22912803 1.0090245 0.15951188 -0.1451614 -0.96297354 0.1884297 0.482934 0.08749858 0.33991092 -0.3711309 0.66851145 -0.28991538 -0.05529373 -0.36442238 0.2885623 -0.13807978 0.54823774 -0.030601185 0.6292266 -0.33759362 0.39980698 0.102302276 -0.3083462 0.33256385
while -0.24322233 0.69623905 -0.110074386 0.44815353 0.0071011507 -0.080379084 -0.038361166 0.91630906 -0.46987596 -0.45031023 0.08251609 -0.38011757 -0.07837694 0.3053164 0.48823068 0.37967664 0.18421014 0.12356443 0.10524327 -0.53995943 0.31869522 0.0677803 0.2534672 0.031432625 0.017555164 0.23236217 -0.50729126 0.28973186 -0.018466154 0.20331804 -0.106603235 -0.23194908 -0.19666371 -0.44683477 -0.39703712 0.30392084 0.28179392 0.033331048 -0.338682 0.2751663 -0.10835923 0.0031317011 0.040214755 0.4328802 0.04337738 -0.4127541 -0.009272062 -0.2841594 0.051049273 0.13622294 0.45941463 -0.06079513 -0.22478577 -0.25760224 -0.10529627 0.14385137 -0.018370189 0.060760964 0.4397476 0.34452054 -0.3596923 -0.20957552 0.17692164 0.1366918 0.070139796 0.5332134 0.2218381 0.4422351 -0.08475229 0.23115717 0.032528877 0.13653746 0.24151595 -0.32679915 0.08110814 0.14538445 0.23371586 0.6836757 0.111443974 -0.05559428 -0.59382766 0.12588853 0.29859868 -0.012251445 0.053645473 -0.29858744 0.5711949 -0.103519075 0.17925338 -0.024454296 0.2621834 -0.042390794 0.19852978 -0.026317416 0.47928348 -0.11820868 0.33014652 0.03589044 -0.044931054 0.2923048
next -0.4602038 0.57173806 0.32721397 -0.2632001 -0.29288554 -0.9086878 0.16784605 0.3876296 -0.55867755 -0.40551677 -0.13785388 -0.012595348 -0.55192035 0.01902152 -0.041557763 0.056503184 0.61218977 -0.28341702 -0.8516752 -1.2022263 -0.12611003 -0.5201911 1.3698927 -0.023582438 -0.60584384 0.37809822 0.18171665 0.43693143 -0.27352327 0.20915164 1.2072643 -0.30797118 0.5386779 -0.6807537 -0.21600719 0.30272743 0.10246445 -0.60630876 -0.3231731 -0.3824334 0.55884296 -0.18125598 -0.31973884 -0.43513197 -0.25340027 -0.36033 -0.81105024 -0.24727742 0.35827446 0.06834925 0.5636152 -0.9745463 -0.17017688 -0.29800376 -0.9893725 0.13571377 0.16337915 0.4275263 -0.8756302 -0.23077948 -0.13358968 -0.3893411 0.43588358 0.45047677 -0.117607996 1.7356997 -0.23178203 0.736911 -1.308532 0.84707767 -0.42967585 1.0120542 0.519527 0.16234705 0.120154746 0.21978813 -0.19409876 0.6929495 -0.30853987 -0.23745266 -0.28977674 0.74052995 -0.11461272 0.116941415 -1.0945624 -1.1755232 0.9462514 -0.018095726 0.86371267 0.006240975 1.052401 0.20060723 -0.97181004 -0.44009498 0.69625384 -0.24185355 0.03046522 -1.6744826 0.41510418 0.085194014
